<?xml version="1.0"?>
<opencv_storage>
<my_svm type_id="opencv-ml-svm">
  <svm_type>C_SVC</svm_type>
  <kernel><type>LINEAR</type></kernel>
  <C>1.0000000000000001e-001</C>
  <term_criteria><epsilon>9.9999997473787516e-006</epsilon>
    <iterations>100</iterations></term_criteria>
  <var_all>10000</var_all>
  <var_count>10000</var_count>
  <class_count>5</class_count>
  <class_labels type_id="opencv-matrix">
    <rows>1</rows>
    <cols>5</cols>
    <dt>i</dt>
    <data>
      0 1 2 3 4</data></class_labels>
  <sv_total>10</sv_total>
  <support_vectors>
    <_>
      0. 0. 0. 0. 0. 0. 0. 0. 0. 0. 0. 0. 0. 0. 0. 0. 0. 0. 0. 0. 0. 0.
      0. 0. 0. 0. 0. 2.34429787e-009 0. 0. 0. 1.17214893e-009
      6.64929800e-009 4.00031226e-008 4.09203729e-008 4.06416198e-008
      4.35195702e-008 3.94694695e-008 3.92145694e-008 4.28810729e-008
      4.33098855e-008 5.50502541e-008 4.11752730e-008 4.17089261e-008
      3.86809162e-008 3.86809162e-008 3.92145694e-008 3.92145694e-008
      3.86809162e-008 6.68124898e-008 2.56700616e-007 7.55511849e-008
      3.51644687e-008 3.51644691e-009 1.17214893e-009 0. 2.34429787e-009
      0. 0. 0. 0. 0. 0. 0. 0. 0. 0. 0. 0. 0. 0. 0. 0. 0. 0. 0. 0. 0. 0.
      0. 0. 0. 0. 0. 0. 0. 0. 0. 0. 0. 0. 0. 0. 0. 0. 0. 0. 0. 0. 0. 0.
      0. 0. 0. 0. 0. 0. 0. 0. 0. 0. 0. 0. 0. 0. 0. 0. 0. 0. 0. 0. 0. 0.
      0. 0. 0. 0. 0. 2.34429787e-009 0. 1.17214893e-009 1.17214893e-009
      4.87418177e-008 2.37307745e-007 2.63733511e-007 2.62561372e-007
      2.68977146e-007 2.61389232e-007 2.66656684e-007 2.78756801e-007
      3.11809998e-007 4.37556849e-007 2.88536455e-007 2.77863393e-007
      2.77863393e-007 2.68617384e-007 2.65055718e-007 2.62561372e-007
      2.61389232e-007 2.65439326e-007 2.47857088e-007 2.61284384e-007
      2.34429791e-007 4.45416610e-008 1.17214893e-009 1.17214893e-009
      1.17214893e-009 2.34429787e-009 0. 0. 0. 0. 0. 0. 0. 0. 0. 0. 0.
      0. 0. 0. 0. 0. 0. 0. 0. 0. 0. 0. 0. 0. 0. 0. 0. 0. 0. 0. 0. 0. 0.
      0. 0. 0. 0. 0. 0. 0. 0. 0. 0. 0. 0. 0. 0. 0. 0. 0. 0. 0. 0. 0. 0.
      0. 0. 0. 0. 0. 0. 0. 0. 0. 0. 0. 0. 0. 0. 1.17214893e-009 0. 0.
      4.68859573e-009 4.68859582e-008 2.48495581e-007 2.57489177e-007
      2.54122796e-007 2.49029227e-007 2.77825137e-007 3.98795919e-007
      3.90223676e-007 4.61161278e-007 5.76471052e-007 7.32760270e-007
      4.67031469e-007 4.85130442e-007 4.08327168e-007 2.79807210e-007
      2.66465889e-007 2.55618914e-007 2.48495581e-007 2.47752240e-007
      2.39652053e-007 2.53184169e-007 2.92398738e-007 2.49667721e-007
      4.92302590e-008 3.51644687e-008 1.17214893e-009 1.17214893e-009 0.
      0. 0. 0. 0. 0. 0. 0. 0. 0. 0. 0. 0. 0. 0. 0. 0. 0. 0. 0. 0. 0. 0.
      0. 0. 0. 0. 0. 0. 0. 0. 0. 0. 0. 0. 0. 0. 0. 0. 0. 0. 0. 0. 0. 0.
      0. 0. 0. 0. 0. 0. 0. 0. 0. 0. 0. 0. 0. 0. 0. 0. 0. 0. 0. 0. 0. 0.
      0. 0. 1.17214893e-009 4.68859573e-009 2.57872781e-008
      5.04024058e-008 2.41462686e-007 2.93466059e-007 2.59109015e-007
      2.57703334e-007 3.98526083e-007 5.47255809e-007 7.99943393e-007
      8.28946497e-007 8.23888740e-007 8.12484245e-007 7.72283897e-007
      8.23355037e-007 8.32624892e-007 6.68993209e-007 5.37974017e-007
      3.88091081e-007 2.62958878e-007 2.53631868e-007 2.56404974e-007
      2.54699188e-007 2.40080851e-007 2.42634826e-007 2.54356337e-007
      2.66077819e-007 2.53184169e-007 4.80581086e-008 1.17214893e-009
      1.17214893e-009 0. 0. 0. 0. 0. 0. 0. 0. 0. 0. 0. 0. 0. 0. 0. 0. 0.
      0. 0. 0. 0. 0. 0. 0. 0. 0. 0. 0. 0. 0. 0. 0. 0. 0. 0. 0. 0. 0. 0.
      0. 0. 0. 0. 0. 0. 0. 0. 0. 0. 0. 0. 0. 0. 0. 0. 0. 0. 0. 0. 0. 0.
      0. 0. 0. 0. 0. 0. 0. 1.17214893e-009 5.74353010e-008
      2.52012029e-007 2.67249959e-007 2.50201396e-007 2.75328290e-007
      3.53215341e-007 4.86578870e-007 8.11497955e-007 8.32115120e-007
      7.55369001e-007 7.48698312e-007 7.42339694e-007 7.40402868e-007
      7.48779314e-007 7.44683973e-007 7.37908465e-007 7.90313777e-007
      8.47521960e-007 6.44676277e-007 3.86025562e-007 3.63819339e-007
      3.62925931e-007 3.54921127e-007 2.70279969e-007 2.56195307e-007
      2.38375051e-007 2.54356337e-007 2.90692952e-007 2.55528477e-007
      5.74353010e-008 3.51644691e-009 0. 0. 0. 0. 0. 0. 0. 0. 0. 0. 0.
      0. 0. 0. 0. 0. 0. 0. 0. 0. 0. 0. 0. 0. 0. 0. 0. 0. 0. 0. 0. 0. 0.
      0. 0. 0. 0. 0. 0. 0. 0. 0. 0. 0. 0. 0. 0. 0. 0. 0. 0. 0. 0. 0. 0.
      0. 0. 0. 0. 0. 0. 0. 1.17214893e-009 3.86061139e-009
      1.17214893e-009 3.86061139e-009 2.68846256e-009 0. 2.19326537e-007
      5.43982537e-007 5.61460467e-007 5.15481361e-007 2.99958856e-007
      3.58503002e-007 5.04601473e-007 8.03493151e-007 8.24216158e-007
      7.58942576e-007 7.52021606e-007 7.52616074e-007 7.54321889e-007
      7.54321889e-007 7.51633422e-007 7.51633422e-007 7.49672722e-007
      7.57061798e-007 7.81771689e-007 8.43498356e-007 6.52713197e-007
      3.99588487e-007 3.57880083e-007 3.53958683e-007 3.58761554e-007
      3.50049191e-007 2.66870956e-007 2.50753914e-007 2.50096548e-007
      2.88498711e-007 2.52012029e-007 2.89201285e-008 4.70063632e-009
      1.17214893e-009 4.70063632e-009 1.17214893e-009 1.17214893e-009 0.
      0. 0. 0. 0. 0. 0. 5.83231108e-009 0. 0. 0. 0. 4.70063632e-009 0.
      0. 4.70063632e-009 4.70063632e-009 4.70063632e-009 5.83231108e-009
      1.05329478e-008 0. 0. 4.70063632e-009 0. 4.70063632e-009 0. 0. 0.
      0. 0. 0. 0. 0. 0. 0. 0. 0. 0. 0. 0. 0. 0. 0. 0. 0. 0. 0. 0. 0. 0.
      0. 0. 0. 0. 0. 0. 0. 2.68846256e-009 2.68846256e-009
      5.37692513e-009 1.17214893e-009 1.34078959e-007 2.93601033e-007
      7.99630413e-007 9.44777923e-007 9.01064254e-007 9.12624557e-007
      6.82310827e-007 7.29644569e-007 1.05913159e-006 1.04969922e-006
      7.74568150e-007 7.43790622e-007 7.53594122e-007 8.26910366e-007
      9.10252709e-007 7.54321889e-007 7.54321889e-007 7.57010355e-007
      7.56334032e-007 7.57010355e-007 7.56608074e-007 7.85744589e-007
      8.49380456e-007 4.56994428e-007 3.49155783e-007 3.51116483e-007
      3.52357716e-007 3.58947375e-007 3.65525125e-007 3.62325807e-007
      2.71140181e-007 2.57675140e-007 2.80455765e-007 5.39308935e-008
      9.38923250e-009 0. 0. 0. 4.70063632e-009 0. 0. 0. 0. 0.
      5.83231108e-009 0. 0. 0. 5.83231108e-009 5.83231108e-009 0.
      9.40127265e-009 4.70063632e-009 4.70063632e-009 0. 0.
      4.70063632e-009 4.70063632e-009 4.70063632e-009 0. 0.
      4.70063632e-009 4.70063632e-009 4.70063632e-009 0. 4.70063632e-009
      0. 0. 0. 0. 0. 0. 0. 0. 0. 0. 0. 0. 0. 0. 0. 0. 0. 0. 0. 0. 0. 0.
      0. 0. 0. 0. 0. 0. 0. 0. 3.86061139e-009 3.86061139e-009
      2.68846256e-009 1.40972205e-007 5.52306972e-007 7.24862332e-007
      8.46502360e-007 7.94098810e-007 7.88782131e-007 8.66241805e-007
      1.15744081e-006 1.44569617e-006 1.46641082e-006 1.36334143e-006
      1.10866529e-006 1.09825100e-006 1.09037967e-006 1.18716434e-006
      1.28394902e-006 1.09037967e-006 8.91433444e-007 7.59022498e-007
      7.56334032e-007 7.56528152e-007 7.63723165e-007 7.51633422e-007
      7.88433056e-007 6.73205307e-007 3.90864187e-007 3.49689458e-007
      3.53077183e-007 3.49515545e-007 3.57625169e-007 3.80691745e-007
      3.62070921e-007 2.55709466e-007 2.61458524e-007 2.43168500e-007
      4.92422991e-008 1.17214893e-009 4.70063632e-009 4.70063632e-009 0.
      4.70063632e-009 4.70063632e-009 4.70063632e-009 4.70063632e-009
      4.70063632e-009 4.70063632e-009 1.05329478e-008 4.70063632e-009
      4.70063632e-009 4.70063632e-009 4.70063632e-009 0. 9.40127265e-009
      0. 0. 0. 9.40127265e-009 4.70063632e-009 1.05329478e-008
      1.05329478e-008 4.70063632e-009 0. 0. 4.70063632e-009 0.
      4.70063632e-009 0. 0. 0. 0. 0. 0. 0. 0. 0. 0. 0. 0. 0. 0. 0. 0. 0.
      0. 0. 0. 0. 0. 0. 0. 0. 0. 0. 0. 0. 0. 0. 2.68846256e-009
      2.34429787e-009 2.68846256e-009 3.16894415e-007 6.98386771e-007
      8.12434223e-007 8.00264274e-007 7.90403305e-007 8.10932193e-007
      8.99598831e-007 1.19786034e-006 1.36240556e-006 1.29397506e-006
      1.29688613e-006 1.39417591e-006 1.40028067e-006 1.39686438e-006
      1.37804523e-006 1.33771823e-006 1.39955284e-006 1.24631049e-006
      1.06349512e-006 1.11663951e-006 8.80003313e-007 7.66360131e-007
      7.80616460e-007 9.00872294e-007 9.81129688e-007 8.19458705e-007
      5.30168165e-007 5.14482565e-007 4.95942857e-007 4.99576174e-007
      4.87537193e-007 3.88111062e-007 2.68193162e-007 2.47113746e-007
      2.98922060e-007 2.55540527e-007 8.09746012e-008 1.44535548e-007
      6.56904945e-007 9.55401333e-007 9.30726003e-007 9.30726003e-007
      9.30726003e-007 9.30726003e-007 9.30726003e-007 9.30726003e-007
      9.36558308e-007 9.30726003e-007 9.30726003e-007 9.36558308e-007
      9.42390670e-007 9.35426669e-007 9.21324727e-007 9.35426669e-007
      9.49528555e-007 4.79464916e-007 1.42150768e-007 1.59821639e-007
      1.17515910e-007 9.40127265e-009 0. 0. 4.70063632e-009
      4.70063632e-009 9.40127265e-009 0. 4.70063632e-009 0. 0. 0. 0. 0.
      0. 0. 0. 0. 0. 0. 0. 0. 0. 0. 0. 0. 0. 0. 0. 0. 0. 0. 0. 0. 0. 0.
      0. 0. 0. 3.86061139e-009 2.68846256e-009 1.62479907e-007
      5.30799298e-007 6.18905005e-007 8.19696595e-007 7.99969939e-007
      7.97396751e-007 8.06367666e-007 1.06198661e-006 1.32873845e-006
      1.31792024e-006 1.29865271e-006 1.30276828e-006 1.29416924e-006
      1.30061346e-006 1.30276828e-006 1.29470288e-006 1.30007982e-006
      1.29470288e-006 1.34040670e-006 1.38146140e-006 1.38342216e-006
      1.27720284e-006 1.36846029e-006 1.28354839e-006 1.78454047e-006
      1.82270446e-006 1.82679150e-006 1.79007179e-006 1.69934583e-006
      1.39989208e-006 1.39259225e-006 1.29370494e-006 5.58964018e-007
      3.56884442e-007 2.67764364e-007 2.74783929e-007 5.16857142e-007
      7.33857348e-007 1.07358539e-006 1.03884065e-006 9.93006438e-007
      1.00593616e-006 1.00593616e-006 1.00593616e-006 1.00593616e-006
      1.00593616e-006 1.00593616e-006 1.00593616e-006 1.01176852e-006
      1.01176852e-006 1.00593616e-006 1.01290016e-006 1.00123555e-006
      1.01063688e-006 1.00123555e-006 9.96534936e-007 1.04354126e-006
      1.03997229e-006 1.04824198e-006 8.94252594e-007 2.49133734e-007
      2.58535010e-007 2.53834372e-007 2.25630558e-007 1.88025453e-008
      4.70063632e-009 9.40127265e-009 0. 0. 0. 0. 0. 0. 0. 0. 0. 0. 0.
      0. 0. 0. 0. 0. 0. 0. 0. 0. 0. 0. 0. 0. 0. 0. 0. 0. 0. 0. 0. 0.
      1.36767426e-007 5.67265602e-007 6.37165613e-007 5.71684836e-007
      8.23417565e-007 8.04279580e-007 8.03169371e-007 9.73100100e-007
      1.37655184e-006 1.35219443e-006 1.28904333e-006 1.30419528e-006
      1.30545675e-006 1.30223464e-006 1.30257411e-006 1.30007982e-006
      1.30545675e-006 1.30545675e-006 1.29739135e-006 1.30007982e-006
      1.28932595e-006 1.28394902e-006 1.65737822e-006 2.50215544e-006
      2.33824562e-006 1.78436164e-006 1.70213536e-006 1.71051181e-006
      1.75359742e-006 1.74115530e-006 1.69605914e-006 1.57591330e-006
      1.37286111e-006 1.33652316e-006 7.33027775e-007 7.60224623e-007
      7.16731677e-007 1.34691993e-006 1.39378403e-006 1.20351331e-006
      1.01163607e-006 1.00583986e-006 1.00231136e-006 1.00553348e-006
      1.00231136e-006 1.00231136e-006 1.00231136e-006 1.00348359e-006
      9.98794917e-007 9.67680535e-007 9.69462803e-007 1.08027666e-006
      1.43021532e-006 1.41467910e-006 1.40801785e-006 1.41389057e-006
      1.41325211e-006 1.40801785e-006 1.39165252e-006 1.03701325e-006
      9.91834327e-007 1.14808699e-006 1.14225463e-006 1.14225463e-006
      1.01533749e-006 3.85452182e-007 2.06828005e-007 0. 4.70063632e-009
      0. 0. 0. 0. 0. 0. 0. 0. 4.70063632e-009 0. 0. 0. 0. 0. 0. 0. 0. 0.
      0. 0. 0. 0. 0. 0. 0. 2.68846256e-009 0. 2.68846256e-009 0. 0.
      1.17214893e-009 2.17421302e-007 6.75976253e-007 5.67265602e-007
      5.77405956e-007 8.27278200e-007 8.02508339e-007 9.21944263e-007
      1.34626339e-006 1.36835286e-006 1.30615604e-006 1.30080753e-006
      1.30746889e-006 1.30746889e-006 1.30746889e-006 1.30746889e-006
      1.31330114e-006 1.31330114e-006 1.30276828e-006 1.31800186e-006
      1.42498482e-006 2.04928892e-006 1.99489341e-006 2.26841098e-006
      2.38619464e-006 2.36521214e-006 2.22876020e-006 1.77441007e-006
      1.72961700e-006 1.71320187e-006 1.71790089e-006 1.74927550e-006
      1.74011814e-006 1.72815976e-006 1.78158189e-006 1.87023716e-006
      1.95054417e-006 1.87868704e-006 1.65837787e-006 1.33431831e-006
      1.24111500e-006 1.26926818e-006 1.22673487e-006 1.40903251e-006
      2.11205361e-006 2.10602730e-006 2.09573977e-006 2.09598375e-006
      2.09376822e-006 2.06284790e-006 1.87657645e-006 1.84656244e-006
      1.95484654e-006 2.34005597e-006 2.30702267e-006 2.30506203e-006
      2.30623414e-006 2.30872865e-006 2.30990076e-006 2.29976331e-006
      1.89733396e-006 1.85821352e-006 1.43025579e-006 9.74163413e-007
      9.63630441e-007 9.73031774e-007 1.09524831e-006 9.11923451e-007
      7.05095488e-007 6.58089107e-007 7.05095502e-008 2.57665320e-008 0.
      1.52335833e-008 1.05329478e-008 4.70063632e-009 0. 1.52335833e-008
      1.05329478e-008 0. 0. 0. 0. 0. 0. 0. 0. 0. 0. 0. 0. 0. 0. 0. 0. 0.
      5.37692513e-009 0. 0. 2.68846256e-009 1.61307753e-007
      5.40036808e-007 5.72642534e-007 5.44241573e-007 5.80782739e-007
      8.19746447e-007 8.23716334e-007 9.84558028e-007 1.38295923e-006
      1.30283729e-006 1.30080753e-006 1.30550814e-006 1.30746889e-006
      1.30746889e-006 1.30276828e-006 1.31216950e-006 1.30276828e-006
      1.34620564e-006 1.41314626e-006 1.96198903e-006 2.20755373e-006
      2.42622036e-006 2.43092109e-006 2.28766885e-006 2.26504608e-006
      2.42872125e-006 2.35220864e-006 2.23413713e-006 2.16428862e-006
      1.77951461e-006 1.76994388e-006 1.74892944e-006 1.73616252e-006
      1.73576427e-006 1.72076898e-006 1.76154538e-006 1.90656203e-006
      2.01953662e-006 1.87525336e-006 2.10749704e-006 2.71758677e-006
      2.63147354e-006 2.32603611e-006 2.36286110e-006 2.67255700e-006
      2.62466051e-006 2.60289357e-006 2.60340698e-006 2.60975480e-006
      2.60876118e-006 2.63059292e-006 2.60910952e-006 2.36484175e-006
      2.12130612e-006 2.14811234e-006 2.14811234e-006 2.14747388e-006
      2.14732381e-006 2.14811234e-006 2.14179772e-006 2.31206650e-006
      2.35289258e-006 2.21291725e-006 1.91542881e-006 1.97262034e-006
      1.96791962e-006 1.94441645e-006 2.02902788e-006 2.11834003e-006
      2.09013615e-006 1.83273289e-006 1.81993664e-006 1.42682461e-006
      4.32286782e-007 1.51814021e-007 1.34143150e-007 1.39975469e-007
      1.38843788e-007 2.80298806e-008 0. 0. 0. 0. 0. 0. 0. 0. 0. 0. 0.
      0. 0. 0. 0. 0. 0. 2.68846256e-009 0. 2.68846256e-009 0.
      2.51199168e-007 6.54468579e-007 5.44241573e-007 5.53479140e-007
      6.00365070e-007 8.16868464e-007 9.47726562e-007 1.34721392e-006
      1.30558658e-006 1.30251328e-006 1.30080753e-006 1.30276828e-006
      1.31687011e-006 1.30746889e-006 1.30746889e-006 1.30746889e-006
      1.31216950e-006 1.84447310e-006 2.30043474e-006 2.32393813e-006
      2.30400383e-006 2.25926078e-006 2.27559576e-006 2.26954262e-006
      2.26371026e-006 2.35415405e-006 2.37496874e-006 2.38881216e-006
      2.47946195e-006 2.44204443e-006 2.45257729e-006 2.33560718e-006
      1.93335723e-006 1.88375304e-006 1.82994938e-006 2.30463002e-006
      2.93542030e-006 3.12570182e-006 3.12407428e-006 2.99579165e-006
      2.97892552e-006 2.96718781e-006 2.91717492e-006 2.90334697e-006
      2.85216743e-006 2.75478192e-006 2.48812626e-006 2.51131155e-006
      2.59302487e-006 2.58538194e-006 2.51872802e-006 2.47055300e-006
      2.41650923e-006 2.21627761e-006 2.18621381e-006 2.19471895e-006
      2.16590365e-006 2.15978798e-006 2.16096009e-006 2.14989336e-006
      2.14925490e-006 2.15459409e-006 2.17962906e-006 2.21174514e-006
      2.20704442e-006 2.21174514e-006 2.21174514e-006 2.21174514e-006
      2.21644564e-006 2.19764320e-006 2.24578116e-006 2.25405074e-006
      2.25309304e-006 2.20800212e-006 1.45267927e-006 1.37860070e-006
      1.38330142e-006 1.33664287e-006 3.55944906e-007 0. 0. 0. 0. 0. 0.
      0. 0. 0. 0. 0. 0. 0. 0. 0. 0. 2.68846256e-009 5.37692513e-009
      2.68846256e-009 2.68846256e-009 1.29046200e-007 5.67265602e-007
      5.75331001e-007 5.51134804e-007 5.85127168e-007 7.97286134e-007
      8.18622823e-007 1.00624254e-006 1.38447922e-006 1.30166518e-006
      1.30261822e-006 1.30355681e-006 1.30746889e-006 1.30746889e-006
      1.30276828e-006 1.30276828e-006 1.52369819e-006 1.85274268e-006
      2.45555589e-006 2.32393813e-006 2.26639872e-006 2.27336272e-006
      2.27109945e-006 2.26954262e-006 2.26954262e-006 2.27647638e-006
      2.39010569e-006 2.73759611e-006 3.23501786e-006 3.69526356e-006
      3.75238074e-006 3.74325191e-006 3.73833041e-006 3.68900055e-006
      3.69458712e-006 3.70506859e-006 3.58009743e-006 3.44815157e-006
      3.48112781e-006 3.64600965e-006 3.62513424e-006 3.46691354e-006
      3.48507433e-006 3.47525906e-006 3.47331388e-006 3.46992601e-006
      3.51081826e-006 3.48584149e-006 3.07462255e-006 3.05941921e-006
      3.06990069e-006 3.07566620e-006 2.79897336e-006 2.65185895e-006
      2.46293871e-006 2.44862940e-006 2.41714838e-006 2.22361768e-006
      2.20473453e-006 2.19548610e-006 2.16213220e-006 2.16743092e-006
      2.16042645e-006 2.16194280e-006 2.15576620e-006 2.15925434e-006
      2.15455361e-006 2.15925434e-006 2.15455361e-006 2.14515239e-006
      2.16395483e-006 2.15925434e-006 2.15925434e-006 2.15342197e-006
      2.15925434e-006 2.32960883e-006 2.34727963e-006 2.34841150e-006
      2.29087209e-006 1.80061443e-006 0. 0. 0. 0. 0. 0. 0. 0. 0. 0. 0.
      0. 0. 0. 0. 0. 2.68846256e-009 2.68846256e-009 0. 0.
      1.61307753e-007 6.55984877e-007 5.35004062e-007 5.49618505e-007
      6.02709406e-007 8.17212651e-007 9.05921581e-007 1.34694710e-006
      1.30194394e-006 1.29920659e-006 1.30526257e-006 1.30027388e-006
      1.30276828e-006 1.30860053e-006 1.32627144e-006 1.74932870e-006
      2.41681914e-006 2.36981282e-006 2.26282987e-006 2.75161233e-006
      2.97794077e-006 2.34221875e-006 2.26169800e-006 2.68989402e-006
      3.04008404e-006 2.97794077e-006 3.15891634e-006 3.85976000e-006
      3.69183181e-006 3.46006186e-006 3.46360957e-006 3.45194485e-006
      3.47911555e-006 3.49788320e-006 3.49420588e-006 3.49003881e-006
      3.49670017e-006 3.48307481e-006 3.46897286e-006 3.52812049e-006
      3.69103441e-006 3.53303562e-006 3.47978471e-006 3.49200423e-006
      3.49639845e-006 3.49068205e-006 3.49102152e-006 3.51133508e-006
      3.49879724e-006 3.50007690e-006 3.48870662e-006 3.49494758e-006
      3.55291922e-006 3.31950173e-006 2.73957380e-006 2.69904285e-006
      2.48275569e-006 2.48263200e-006 2.48971014e-006 2.47070079e-006
      2.23437019e-006 2.20368156e-006 2.16202739e-006 2.16096009e-006
      2.16213220e-006 2.15925434e-006 2.16395483e-006 2.15925434e-006
      2.15455361e-006 2.16395483e-006 2.15925434e-006 2.15925434e-006
      2.14872125e-006 2.15925434e-006 2.15455361e-006 2.15812270e-006
      2.16395483e-006 2.16282319e-006 2.16978719e-006 2.28260251e-006 0.
      0. 0. 0. 0. 0. 0. 0. 0. 0. 0. 0. 0. 0. 0. 0. 0. 0. 2.68846256e-009
      2.41961633e-008 2.09700076e-007 6.39126313e-007 5.42086809e-007
      5.89109391e-007 8.04824253e-007 8.02593036e-007 9.09202015e-007
      1.37506663e-006 1.30454316e-006 1.30610624e-006 1.32609750e-006
      1.36692370e-006 1.32026514e-006 1.37519328e-006 1.84099440e-006
      3.12131124e-006 3.24013263e-006 3.10268251e-006 3.11208373e-006
      3.53671089e-006 3.59033334e-006 3.13541318e-006 3.10625160e-006
      3.46672323e-006 3.65562050e-006 3.67555458e-006 3.60539298e-006
      3.45636408e-006 3.65831761e-006 3.61714342e-006 3.46555089e-006
      3.45849412e-006 3.45148965e-006 3.45933404e-006 3.45350168e-006
      3.44993282e-006 3.46403476e-006 3.45933404e-006 3.45933404e-006
      3.47343598e-006 3.60035324e-006 3.56744863e-006 3.43999795e-006
      3.45880039e-006 3.45880039e-006 3.45880039e-006 3.45880039e-006
      3.46417733e-006 3.48299659e-006 3.48694653e-006 3.48353024e-006
      3.49106199e-006 3.48176354e-006 3.49358470e-006 3.60352647e-006
      3.56454711e-006 3.30090779e-006 3.24513280e-006 3.14864246e-006
      3.16711748e-006 2.75383718e-006 2.61478635e-006 2.32221646e-006
      2.22393146e-006 2.16311491e-006 2.16121498e-006 2.16428703e-006
      2.16507556e-006 2.16096009e-006 2.15925434e-006 2.16292074e-006
      2.15978798e-006 2.16032163e-006 2.16301009e-006 2.15925434e-006
      2.15925434e-006 2.15925434e-006 2.16395483e-006 2.15925434e-006
      2.14985289e-006 0. 0. 0. 0. 0. 0. 0. 0. 0. 0. 0. 0. 0. 0. 0. 0.
      2.68846256e-009 5.03276043e-009 2.68846256e-009 1.66340513e-007
      6.09936819e-007 5.67365817e-007 5.53907967e-007 6.00554586e-007
      8.22345612e-007 8.21213746e-007 1.16556794e-006 1.38706650e-006
      1.29581883e-006 1.33246340e-006 1.41941450e-006 2.29813281e-006
      1.57575516e-006 2.41560792e-006 3.07622236e-006 3.55211841e-006
      3.53557925e-006 3.51564495e-006 3.53671089e-006 3.46785487e-006
      3.45732178e-006 3.52034567e-006 3.52617803e-006 3.49118409e-006
      3.44452565e-006 3.44565728e-006 3.45505850e-006 3.44322007e-006
      3.47029209e-006 3.70619568e-006 3.81078189e-006 3.46789534e-006
      3.47142372e-006 3.45619014e-006 3.45148965e-006 3.46672323e-006
      3.46089087e-006 3.46785487e-006 3.45619014e-006 3.45262129e-006
      3.52313077e-006 3.66414997e-006 3.51843005e-006 3.45262129e-006
      3.46202251e-006 3.46202251e-006 3.46202251e-006 3.46202251e-006
      3.45933404e-006 3.46325555e-006 3.45487888e-006 3.45933404e-006
      3.45664557e-006 3.46686579e-006 3.48122990e-006 3.49254515e-006
      3.55785096e-006 3.53690621e-006 3.22796473e-006 3.08879430e-006
      3.13464238e-006 3.12783368e-006 3.10763221e-006 2.66524899e-006
      2.33090464e-006 2.30809633e-006 2.24914106e-006 2.16580338e-006
      2.16364856e-006 2.16277067e-006 2.16247645e-006 2.16149374e-006
      2.16194280e-006 2.16311491e-006 2.15978798e-006 2.16194280e-006
      2.15925434e-006 2.15925434e-006 2.15925434e-006 2.15925434e-006 0.
      0. 0. 0. 0. 0. 0. 0. 0. 0. 0. 0. 0. 0. 0. 0. 0. 2.68846256e-009
      1.17214893e-009 1.78610676e-007 6.64050276e-007 5.52496488e-007
      6.16097225e-007 8.00074815e-007 8.30071315e-007 1.05728157e-006
      1.41697285e-006 1.35155017e-006 1.35913069e-006 2.14404804e-006
      2.72638590e-006 2.55867576e-006 2.63140350e-006 2.62269805e-006
      3.22568508e-006 3.50432833e-006 3.45035778e-006 3.45505850e-006
      3.46672323e-006 3.46202251e-006 3.45619014e-006 3.46785487e-006
      3.45619014e-006 3.45619014e-006 3.46202251e-006 3.46898651e-006
      3.45732178e-006 3.46089087e-006 3.45971876e-006 3.50288906e-006
      3.75280183e-006 3.82031658e-006 3.64421567e-006 3.53253199e-006
      3.45148965e-006 3.44678892e-006 3.45845365e-006 3.45148965e-006
      3.46202251e-006 3.46672323e-006 3.46202251e-006 3.62654487e-006
      3.54193321e-006 3.44792056e-006 3.46471097e-006 3.45933404e-006
      3.45933404e-006 3.46202251e-006 3.46202251e-006 3.45790704e-006
      3.46398315e-006 3.46148886e-006 3.46006186e-006 3.46202251e-006
      3.46398315e-006 3.46006186e-006 3.45952822e-006 3.52761913e-006
      3.50462437e-006 3.27973794e-006 3.29687919e-006 3.16222918e-006
      3.08884933e-006 3.17148761e-006 3.21714606e-006 3.19216747e-006
      2.77765412e-006 2.34471304e-006 2.32364982e-006 2.26241877e-006
      2.16703620e-006 2.16311491e-006 2.16364856e-006 2.16247645e-006
      2.16731974e-006 2.16418221e-006 2.15925434e-006 2.16032163e-006
      2.15925434e-006 2.15925434e-006 0. 0. 0. 0. 0. 0. 0. 0. 0. 0. 0.
      0. 0. 0. 0. 0. 2.68846256e-009 0. 1.17214893e-009 1.72061604e-007
      6.66394556e-007 5.96830603e-007 8.07612935e-007 8.40627195e-007
      1.09464384e-006 1.38136193e-006 1.35486152e-006 1.32164246e-006
      2.08870324e-006 2.74228182e-006 2.57225133e-006 2.48863830e-006
      2.51005667e-006 3.01546197e-006 3.58780812e-006 3.45262129e-006
      3.46202251e-006 3.46315414e-006 3.46315414e-006 3.45035778e-006
      3.45505850e-006 3.46202251e-006 3.46202251e-006 3.47368723e-006
      3.46202251e-006 3.45505850e-006 3.47368723e-006 3.46202251e-006
      3.45266176e-006 3.44331283e-006 3.46654474e-006 3.71869669e-006
      3.65918936e-006 3.57953832e-006 3.57013710e-006 3.56073588e-006
      3.51016047e-006 3.46672323e-006 3.45732178e-006 3.46202251e-006
      3.45262129e-006 3.62654487e-006 3.54663393e-006 3.46202251e-006
      3.45933404e-006 3.46471097e-006 3.46471097e-006 3.46202251e-006
      3.46471097e-006 3.46148886e-006 3.46202251e-006 3.45933404e-006
      3.45933404e-006 3.46202251e-006 3.46006186e-006 3.46477168e-006
      3.45667399e-006 3.46869319e-006 3.50907931e-006 3.52157144e-006
      3.51502217e-006 3.42723501e-006 3.34352399e-006 3.38774294e-006
      3.15736429e-006 3.10530686e-006 3.12185466e-006 3.06434663e-006
      3.07526125e-006 2.86375007e-006 2.37271934e-006 2.39688006e-006
      2.24849077e-006 2.17440629e-006 2.16354374e-006 2.16247645e-006
      2.15508726e-006 2.15925434e-006 2.15978798e-006 2.16085527e-006 0.
      0. 0. 0. 0. 0. 0. 0. 0. 0. 0. 0. 0. 0. 0. 0. 2.34429787e-009
      1.19259997e-008 3.86061139e-009 1.85159749e-007 6.66050369e-007
      6.03053536e-007 8.46612807e-007 1.07056496e-006 1.30044441e-006
      1.38589360e-006 1.36065057e-006 2.08126994e-006 2.75608113e-006
      2.56504177e-006 2.46090372e-006 2.51201732e-006 2.59710532e-006
      3.29166801e-006 3.55603515e-006 3.46315414e-006 3.45619014e-006
      3.45619014e-006 3.46202251e-006 3.56587248e-006 3.57866884e-006
      3.46785487e-006 3.46202251e-006 3.45035778e-006 3.46202251e-006
      3.45148965e-006 3.46785487e-006 3.46785487e-006 3.47019909e-006
      3.42917383e-006 3.27338739e-006 3.46890124e-006 3.70345106e-006
      3.62288984e-006 3.58650232e-006 3.64534731e-006 3.62297578e-006
      3.45375292e-006 3.46089087e-006 3.45732178e-006 3.46672323e-006
      3.51843005e-006 3.58893976e-006 3.47142372e-006 3.46202251e-006
      3.45933404e-006 3.45933404e-006 3.45933404e-006 3.46202251e-006
      3.46202251e-006 3.45737340e-006 3.46398315e-006 3.46275033e-006
      3.46398315e-006 3.46076104e-006 3.46568891e-006 3.46148886e-006
      3.45942340e-006 3.45667399e-006 3.45149124e-006 3.45339117e-006
      3.49893639e-006 3.53431369e-006 3.52599795e-006 3.41585906e-006
      3.35682830e-006 3.11602776e-006 3.09839334e-006 3.08563472e-006
      3.13491660e-006 3.21979405e-006 3.18799130e-006 2.74658942e-006
      2.44618104e-006 2.35445236e-006 2.20912648e-006 2.17269780e-006
      2.17633124e-006 2.16448848e-006 2.15978798e-006 0. 0. 0. 0. 0. 0.
      0. 0. 0. 0. 0. 0. 0. 0. 0. 0. 5.37692513e-009 1.17214893e-009
      4.64916505e-009 1.84431997e-007 7.00386863e-007 7.93730237e-007
      8.44866236e-007 1.21185462e-006 1.26194618e-006 1.98634666e-006
      2.44512671e-006 2.55451619e-006 2.54558427e-006 2.49059894e-006
      2.49839195e-006 2.49726031e-006 2.74752574e-006 3.62184414e-006
      3.43381862e-006 3.46202251e-006 3.45732178e-006 3.47142372e-006
      3.45732178e-006 3.51338167e-006 3.71281180e-006 3.63115942e-006
      3.43869328e-006 3.45619014e-006 3.45619014e-006 3.46202251e-006
      3.46202251e-006 3.46902698e-006 3.44446880e-006 3.27679459e-006
      3.25106407e-006 3.44095224e-006 3.49470042e-006 3.69644658e-006
      3.48761500e-006 3.54080157e-006 3.61714342e-006 3.45375292e-006
      3.46202251e-006 3.46672323e-006 3.46202251e-006 3.44322007e-006
      3.62654487e-006 3.48552567e-006 3.46202251e-006 3.45262129e-006
      3.45637295e-006 3.46672323e-006 3.44507384e-006 3.46202251e-006
      3.45637295e-006 3.46202251e-006 3.45637295e-006 3.45441231e-006
      3.45637295e-006 3.44124305e-006 3.46202251e-006 3.46202251e-006
      3.46202251e-006 3.46202251e-006 3.39992266e-006 3.39422786e-006
      3.37979600e-006 3.39030657e-006 3.40645738e-006 3.41994973e-006
      3.35500613e-006 3.35079403e-006 3.30061175e-006 3.00301167e-006
      3.01559066e-006 3.07553569e-006 3.12377870e-006 3.16567821e-006
      2.96931012e-006 2.64895789e-006 2.50946209e-006 2.30232763e-006
      2.18631681e-006 2.16980015e-006 0. 0. 0. 0. 0. 0. 0. 0. 0. 0. 0.
      0. 0. 0. 0. 0. 4.30500036e-009 6.99346270e-009 5.82131365e-009
      1.55930834e-007 7.01214844e-007 8.15746148e-007 1.08388247e-006
      1.23981886e-006 1.73104058e-006 2.71173099e-006 2.64170535e-006
      2.48036145e-006 2.49255982e-006 2.49255982e-006 2.50779340e-006
      2.50422431e-006 2.73812452e-006 3.61244292e-006 3.44792056e-006
      3.45262129e-006 3.46672323e-006 3.45845365e-006 3.46089087e-006
      3.44565728e-006 3.49118409e-006 3.55533939e-006 3.71281180e-006
      3.57283648e-006 3.49118409e-006 3.47951936e-006 3.45619014e-006
      3.45736225e-006 3.45501803e-006 3.43857960e-006 3.43626357e-006
      3.46202251e-006 3.45384592e-006 3.66972245e-006 3.67311736e-006
      3.47951936e-006 3.55847260e-006 3.53140035e-006 3.45845365e-006
      3.45732178e-006 3.45732178e-006 3.46202251e-006 3.49492689e-006
      3.62654487e-006 3.45167223e-006 3.47142372e-006 3.46672323e-006
      3.44697173e-006 3.45637295e-006 3.45637295e-006 3.45637295e-006
      3.45637295e-006 3.45637295e-006 3.45637295e-006 3.45637295e-006
      3.45445756e-006 3.41117652e-006 3.32643344e-006 2.94590154e-006
      3.06463880e-006 2.44314356e-006 2.24172049e-006 2.23042139e-006
      2.22281119e-006 2.22650010e-006 2.23292250e-006 2.26790735e-006
      2.26961220e-006 2.25605913e-006 2.21844698e-006 2.31991248e-006
      2.61004288e-006 2.65953395e-006 2.95717405e-006 3.02440480e-006
      3.09935558e-006 2.93008497e-006 2.57284069e-006 2.24647306e-006
      2.26944007e-006 0. 0. 0. 0. 0. 0. 0. 0. 0. 0. 0. 0. 0. 0. 0. 0.
      5.82131365e-009 1.16426273e-008 4.14990886e-008 3.96376151e-007
      7.17646287e-007 8.18090484e-007 1.18823300e-006 1.31209868e-006
      2.09276936e-006 2.61166906e-006 2.48555534e-006 2.50422431e-006
      2.50422431e-006 2.49839195e-006 2.50309267e-006 2.52129712e-006
      2.95905443e-006 3.57013710e-006 3.45262129e-006 3.46672323e-006
      3.44792056e-006 3.45975923e-006 3.46315414e-006 3.45619014e-006
      3.45619014e-006 3.45619014e-006 3.53784253e-006 3.68365022e-006
      3.67198572e-006 3.71281180e-006 3.51451331e-006 3.46785487e-006
      3.46202251e-006 3.46553884e-006 3.46671118e-006 3.46085039e-006
      3.46202251e-006 3.46785487e-006 3.49588458e-006 3.68591373e-006
      3.57353224e-006 3.53253199e-006 3.43155534e-006 3.45732178e-006
      3.46672323e-006 3.46202251e-006 3.46672323e-006 3.60774220e-006
      3.49867878e-006 3.45732178e-006 3.45072340e-006 3.45637295e-006
      3.46672323e-006 3.46202251e-006 3.45637295e-006 3.45637295e-006
      3.46202251e-006 3.45637295e-006 3.41117652e-006 3.22847563e-006
      2.33019773e-006 2.43380509e-006 2.78407697e-006 2.61267519e-006
      2.76147875e-006 2.52419773e-006 2.25301960e-006 2.26431871e-006
      2.28691692e-006 2.60118873e-006 2.22281119e-006 2.25724216e-006
      2.24402766e-006 2.56885892e-006 2.78227867e-006 2.60730326e-006
      2.71758131e-006 2.24581709e-006 1.93715823e-006 1.93886399e-006
      2.02586830e-006 2.05570723e-006 1.56316196e-006 2.14537022e-006 0.
      0. 0. 0. 0. 0. 0. 0. 0. 0. 0. 0. 0. 0. 0. 0. 0. 4.14990886e-008
      3.63386846e-007 6.93798370e-007 8.64496940e-007 1.11773238e-006
      1.26563202e-006 1.76195772e-006 2.70849796e-006 2.47506273e-006
      2.49706977e-006 2.49255982e-006 2.49255982e-006 2.50309267e-006
      2.49726031e-006 2.60650677e-006 3.65474853e-006 3.45732178e-006
      3.46672323e-006 3.46202251e-006 3.53253199e-006 3.45732178e-006
      3.47255536e-006 3.46785487e-006 3.45619014e-006 3.45035778e-006
      3.46202251e-006 3.43869328e-006 3.43869328e-006 3.64282414e-006
      3.68948258e-006 3.45035778e-006 3.46085039e-006 3.46202251e-006
      3.46085039e-006 3.46319462e-006 3.46668276e-006 3.45732178e-006
      3.47481887e-006 3.65788378e-006 3.79402832e-006 3.63220306e-006
      3.47612445e-006 3.46672323e-006 3.45262129e-006 3.46202251e-006
      3.45262129e-006 3.47612445e-006 3.63969775e-006 3.46672323e-006
      3.45167223e-006 3.46107367e-006 3.46202251e-006 3.45072340e-006
      3.46202251e-006 3.41682608e-006 3.37162987e-006 3.06655420e-006
      2.76712831e-006 2.29821603e-006 2.94408278e-006 2.62588969e-006
      2.66917050e-006 2.35279595e-006 2.37166000e-006 2.87815851e-006
      2.92900449e-006 2.94791380e-006 2.89711306e-006 2.50473249e-006
      2.97424617e-006 2.92536083e-006 2.95552400e-006 2.58438217e-006
      2.29772763e-006 2.33088872e-006 2.90880871e-006 2.94933375e-006
      2.97269594e-006 2.70516261e-006 2.55369059e-006 2.37675704e-006
      2.59241347e-006 1.96839119e-006 0. 0. 0. 0. 0. 0. 0. 0. 0. 0. 0.
      0. 0. 0. 0. 0. 1.00260902e-008 7.18607325e-008 6.77492551e-007
      6.40857081e-007 8.68269751e-007 1.19797971e-006 1.35168921e-006
      1.76810875e-006 2.71166209e-006 2.48512652e-006 2.49558775e-006
      2.50309267e-006 2.49839195e-006 2.49839195e-006 2.49255982e-006
      2.60650677e-006 3.63124536e-006 3.47142372e-006 3.45732178e-006
      3.45732178e-006 3.65474853e-006 3.46089087e-006 3.45148965e-006
      3.45148965e-006 3.46202251e-006 3.47368723e-006 3.45619014e-006
      3.46785487e-006 3.45619014e-006 3.46202251e-006 3.60199806e-006
      3.56117175e-006 3.45153012e-006 3.46202251e-006 3.46202251e-006
      3.45501803e-006 3.46785487e-006 3.47255536e-006 3.46089087e-006
      3.48065100e-006 3.60104013e-006 3.69444319e-006 3.50789719e-006
      3.45732178e-006 3.46202251e-006 3.46202251e-006 3.46202251e-006
      3.49492689e-006 3.64439848e-006 3.45732178e-006 3.44882551e-006
      3.45542412e-006 3.35563004e-006 3.14564795e-006 3.17389572e-006
      2.79537608e-006 2.30951514e-006 2.59199237e-006 2.76712831e-006
      2.88011915e-006 2.86690465e-006 2.75391380e-006 2.75362322e-006
      1.74718673e-006 1.45215142e-006 1.42586441e-006 1.42586441e-006
      1.43151397e-006 1.43146872e-006 1.88522711e-006 2.62673984e-006
      1.54321572e-006 1.42759257e-006 1.43347461e-006 1.46144464e-006
      1.42445970e-006 2.46378886e-006 2.86803743e-006 2.91033962e-006
      2.92380355e-006 2.67064593e-006 2.40517488e-006 2.40415284e-006
      1.99175042e-006 0. 0. 0. 0. 0. 0. 0. 0. 0. 0. 0. 0. 0. 0. 0. 0.
      4.80481610e-008 3.85622286e-007 5.98010843e-007 5.75211686e-007
      1.11618044e-006 1.25966403e-006 1.32839716e-006 1.38588553e-006
      2.08205847e-006 2.58641035e-006 2.48619381e-006 2.49839195e-006
      2.49726031e-006 2.50362632e-006 2.50362632e-006 2.59597368e-006
      3.63124536e-006 3.47142372e-006 3.46202251e-006 3.46202251e-006
      3.67355119e-006 3.59477190e-006 3.45732178e-006 3.48308845e-006
      3.44678892e-006 3.46202251e-006 3.45732178e-006 3.45619014e-006
      3.46785487e-006 3.44452565e-006 3.53201017e-006 3.62532728e-006
      3.43752117e-006 3.45501803e-006 3.46319462e-006 3.46202251e-006
      3.46202251e-006 3.45732178e-006 3.46202251e-006 3.46089087e-006
      3.44565728e-006 3.60077820e-006 3.52313077e-006 3.44792056e-006
      3.46672323e-006 3.46672323e-006 3.44792056e-006 3.48082494e-006
      3.60299759e-006 3.33583466e-006 3.18614366e-006 2.77842742e-006
      2.59199237e-006 2.31516469e-006 2.30951514e-006 2.59199237e-006
      2.96486246e-006 2.89706782e-006 2.86882005e-006 2.62673984e-006
      2.37709469e-006 2.38465964e-006 1.26695397e-006 1.97614918e-006
      2.06884488e-006 2.06688401e-006 2.07818312e-006 2.06884488e-006
      2.08962433e-006 1.81611199e-006 1.37099391e-006 2.01883518e-006
      2.07272092e-006 1.85334250e-006 1.91897175e-006 2.15451701e-006
      1.45416379e-006 1.22750782e-006 1.50901258e-006 2.44484704e-006
      2.50425569e-006 2.56483463e-006 2.56966837e-006 2.54280121e-006 0.
      0. 0. 0. 0. 0. 0. 0. 0. 0. 0. 0. 0. 0. 0. 0. 9.79568000e-008
      6.11513940e-007 5.52840618e-007 6.02131706e-007 1.13137764e-006
      1.34721438e-006 1.29998318e-006 1.30223464e-006 1.84410590e-006
      2.62527578e-006 2.48815445e-006 2.50309267e-006 2.49839195e-006
      2.49839195e-006 2.50309267e-006 2.59710532e-006 3.62654487e-006
      3.46672323e-006 3.45732178e-006 3.61714342e-006 3.50902883e-006
      3.65474853e-006 3.64421567e-006 3.54776557e-006 3.49492689e-006
      3.50432833e-006 3.47969331e-006 3.46315414e-006 3.44095656e-006
      3.46202251e-006 3.55063889e-006 3.59033334e-006 3.43982492e-006
      3.45732178e-006 3.46202251e-006 3.46672323e-006 3.45732178e-006
      3.45505850e-006 3.46315414e-006 3.43625607e-006 3.57753697e-006
      3.59390242e-006 3.47969331e-006 3.45185504e-006 3.45524131e-006
      3.45464036e-006 3.45464036e-006 3.24524149e-006 2.96285907e-006
      2.51455936e-006 2.44325020e-006 2.75486263e-006 2.80659583e-006
      2.88385331e-006 2.88950287e-006 2.87255421e-006 2.85560554e-006
      2.60969432e-006 1.42390365e-006 1.59789886e-006 1.81728410e-006
      1.77945901e-006 2.09718928e-006 2.07449443e-006 2.07082098e-006
      2.07449443e-006 2.07449443e-006 2.07449443e-006 2.07449443e-006
      2.08205938e-006 2.06692926e-006 2.06692926e-006 2.08205938e-006
      1.87780415e-006 1.55250882e-006 1.55811313e-006 2.11792371e-006
      2.07449443e-006 1.99688361e-006 1.79851054e-006 1.78455264e-006
      1.52587631e-006 1.77575453e-006 2.58243563e-006 0. 0. 0. 0. 0. 0.
      0. 0. 0. 0. 0. 2.68846256e-009 0. 0. 2.68846256e-009
      5.37692513e-009 1.04850038e-007 6.04559943e-007 5.97303426e-007
      8.55379426e-007 1.17377306e-006 1.34162985e-006 1.30777619e-006
      1.30753324e-006 1.86267016e-006 2.63306879e-006 2.49398681e-006
      2.50309267e-006 2.50309267e-006 2.49839195e-006 2.49839195e-006
      2.60650677e-006 3.62654487e-006 3.47142372e-006 3.46202251e-006
      3.45262129e-006 3.46202251e-006 3.45262129e-006 3.44792056e-006
      3.58893976e-006 3.64064658e-006 3.64064658e-006 3.59720934e-006
      3.51146605e-006 3.48082494e-006 3.55063889e-006 3.68948258e-006
      3.45148965e-006 3.46672323e-006 3.47142372e-006 3.45148965e-006
      3.45732178e-006 3.47142372e-006 3.46785487e-006 3.45619014e-006
      3.45505850e-006 3.54837539e-006 3.66484778e-006 3.75051172e-006
      3.46934326e-006 3.43299098e-006 3.14919930e-006 2.62024014e-006
      2.54036263e-006 2.50994663e-006 3.03806928e-006 2.90556409e-006
      2.85560554e-006 2.80646373e-006 2.45744536e-006 1.49198877e-006
      1.24234350e-006 1.22721349e-006 1.38607868e-006 2.15014438e-006
      2.07449443e-006 2.08205938e-006 2.08205938e-006 2.06692926e-006
      2.07449443e-006 2.07082098e-006 2.07082098e-006 2.07082098e-006
      2.07449443e-006 2.07082098e-006 2.08205938e-006 2.07449443e-006
      2.07449443e-006 2.07449443e-006 2.06692926e-006 2.08962433e-006
      1.76432900e-006 1.23281779e-006 1.60546392e-006 1.78702408e-006
      1.43511227e-006 2.02714364e-006 2.04031289e-006 1.95905864e-006
      1.32609807e-006 0. 0. 0. 0. 0. 0. 0. 0. 0. 0. 0. 0.
      2.68846256e-009 2.68846256e-009 0. 3.22615499e-008 4.81768438e-007
      5.89751323e-007 5.96170707e-007 1.12664850e-006 1.27458975e-006
      1.32286652e-006 1.30454316e-006 1.30689477e-006 1.86267016e-006
      2.63200150e-006 2.48555534e-006 2.50309267e-006 2.49839195e-006
      2.50309267e-006 2.51719462e-006 2.53129656e-006 3.64534731e-006
      3.46672323e-006 3.47142372e-006 3.46672323e-006 3.45262129e-006
      3.46672323e-006 3.46785487e-006 3.46672323e-006 3.45732178e-006
      3.44792056e-006 3.54741769e-006 3.74867545e-006 3.76974140e-006
      3.87716000e-006 3.70105931e-006 3.50563391e-006 3.42798648e-006
      3.44322007e-006 3.44792056e-006 3.46785487e-006 3.45732178e-006
      3.45619014e-006 3.46202251e-006 3.46202251e-006 3.46202251e-006
      3.43625607e-006 3.75842455e-006 3.60453873e-006 3.33509297e-006
      2.22572089e-006 2.61677474e-006 2.83587178e-006 2.93556036e-006
      2.99293447e-006 2.84150360e-006 2.69761017e-006 1.47964397e-006
      1.79458902e-006 2.00075965e-006 2.08014399e-006 2.08205938e-006
      2.07449443e-006 2.07449443e-006 2.07449443e-006 2.07449443e-006
      2.08205938e-006 2.06692926e-006 2.07449443e-006 2.07082098e-006
      2.07082098e-006 2.07082098e-006 2.07082098e-006 2.07449443e-006
      2.07449443e-006 2.06692926e-006 2.08205938e-006 2.07449443e-006
      2.08205938e-006 2.06692926e-006 2.07645508e-006 2.08962433e-006
      1.88340846e-006 1.80215409e-006 2.03863010e-006 1.94392851e-006
      2.03666923e-006 2.11231941e-006 1.49002813e-006 0. 0. 0. 0. 0. 0.
      0. 0. 0. 0. 0. 0. 2.68846256e-009 0. 2.68846256e-009
      4.57038638e-008 6.22012919e-007 5.60816773e-007 5.93737127e-007
      1.10901885e-006 1.30707701e-006 1.31257912e-006 1.31037541e-006
      1.30116723e-006 1.83404222e-006 2.63146785e-006 2.47893445e-006
      2.49839195e-006 2.50779340e-006 2.50779340e-006 2.56420094e-006
      3.18468506e-006 3.51843005e-006 3.46672323e-006 3.46202251e-006
      3.46202251e-006 3.46672323e-006 3.45619014e-006 3.46315414e-006
      3.45732178e-006 3.46202251e-006 3.46672323e-006 3.54480653e-006
      3.61462025e-006 3.64447760e-006 3.79402832e-006 3.57353224e-006
      3.68922065e-006 3.60547892e-006 3.61714342e-006 3.58893976e-006
      3.47725609e-006 3.46202251e-006 3.47255536e-006 3.46202251e-006
      3.45619014e-006 3.46315414e-006 3.45148965e-006 3.64064658e-006
      3.77412744e-006 2.34384629e-006 2.58883074e-006 2.42890724e-006
      2.37709469e-006 2.44201624e-006 2.59332387e-006 1.33282447e-006
      1.33885237e-006 2.13971498e-006 2.07449443e-006 2.08770894e-006
      2.09527389e-006 2.05936431e-006 2.07449443e-006 2.08014399e-006
      2.06692926e-006 2.07449443e-006 2.06692926e-006 2.08962433e-006
      2.07449443e-006 2.07082098e-006 2.07449443e-006 2.07449443e-006
      2.07449443e-006 2.07082098e-006 2.07449443e-006 2.08205938e-006
      2.07449443e-006 2.06692926e-006 2.08205938e-006 2.06692926e-006
      2.07449443e-006 2.07449443e-006 2.07645508e-006 2.06692926e-006
      2.08009874e-006 2.07449443e-006 2.07813787e-006 2.06132495e-006
      2.07253356e-006 0. 0. 0. 0. 0. 0. 0. 0. 0. 0. 0. 0. 0. 0. 0.
      8.06538747e-009 1.75194458e-007 6.10975690e-007 6.08874871e-007
      1.11937163e-006 1.38493442e-006 1.30194394e-006 1.30276828e-006
      1.30663989e-006 1.92045945e-006 2.61503828e-006 2.48089509e-006
      2.49839195e-006 2.49839195e-006 2.50309267e-006 3.19408628e-006
      3.63124536e-006 3.46202251e-006 3.45262129e-006 3.46672323e-006
      3.46202251e-006 3.46202251e-006 3.45732178e-006 3.46785487e-006
      3.45148965e-006 3.46785487e-006 3.45035778e-006 3.47368723e-006
      3.47951936e-006 3.45035778e-006 3.47011814e-006 3.52844131e-006
      3.64056086e-006 3.48796289e-006 3.49022639e-006 3.52313077e-006
      3.63481445e-006 3.65474853e-006 3.65361689e-006 3.48909475e-006
      3.46672323e-006 3.54550230e-006 3.66058089e-006 3.65868300e-006
      3.09883876e-006 1.93814276e-006 1.48519666e-006 1.84457622e-006
      1.78875678e-006 1.79172469e-006 1.81434052e-006 2.20699962e-006
      2.10644998e-006 2.06787831e-006 2.08205938e-006 2.08014399e-006
      2.06692926e-006 2.07449443e-006 2.07082098e-006 2.06517143e-006
      2.07449443e-006 2.07449443e-006 2.07449443e-006 2.08205938e-006
      2.07449443e-006 2.00470049e-006 1.68511815e-006 1.65940457e-006
      1.65573124e-006 1.64471112e-006 1.95694679e-006 2.06692926e-006
      2.07449443e-006 2.07449443e-006 2.07449443e-006 2.07449443e-006
      2.07449443e-006 2.07253356e-006 2.07449443e-006 2.08009874e-006
      2.07645508e-006 2.08205938e-006 2.06496861e-006 2.07645508e-006
      2.05936431e-006 0. 0. 0. 0. 0. 0. 0. 0. 0. 0. 0. 3.92140453e-009
      0. 5.82131365e-009 0. 1.17214893e-009 9.84121868e-008
      6.25020107e-007 9.32342402e-007 1.20219272e-006 1.35099265e-006
      1.31090906e-006 1.34889308e-006 1.88016702e-006 2.72001989e-006
      2.49255982e-006 2.49255982e-006 2.50779340e-006 2.55950022e-006
      3.22228993e-006 3.66414997e-006 3.49022639e-006 3.46202251e-006
      3.46202251e-006 3.46202251e-006 3.46202251e-006 3.46202251e-006
      3.46202251e-006 3.46202251e-006 3.46202251e-006 3.46202251e-006
      3.46202251e-006 3.46202251e-006 3.46785487e-006 3.46202251e-006
      3.45035778e-006 3.53201017e-006 3.68948258e-006 3.59033334e-006
      3.45619014e-006 3.46785487e-006 3.46672323e-006 3.46672323e-006
      3.44880800e-006 3.63602362e-006 3.63293680e-006 3.65337905e-006
      3.51898984e-006 3.32554191e-006 2.18792707e-006 1.43174395e-006
      1.91389654e-006 1.95561324e-006 1.79091569e-006 2.00273598e-006
      1.47994228e-006 2.15051182e-006 2.14133047e-006 1.89163529e-006
      1.91022036e-006 1.90081914e-006 1.91022036e-006 1.90551975e-006
      1.90184642e-006 1.51981692e-006 1.46471643e-006 1.45369631e-006
      1.45369631e-006 1.45002298e-006 1.45369631e-006 1.45369631e-006
      1.48703566e-006 1.41131318e-006 1.42261229e-006 1.45539354e-006
      1.47206322e-006 1.47206322e-006 1.47036599e-006 1.52349025e-006
      1.90184642e-006 1.98266025e-006 2.07082098e-006 2.06714753e-006
      2.06714753e-006 2.07449443e-006 2.07449443e-006 2.07082098e-006
      2.06714753e-006 2.07449443e-006 2.07082098e-006 0. 0. 0. 0. 0. 0.
      0. 0. 0. 0. 0. 1.96070227e-009 2.68846256e-009 0. 0. 0.
      9.60568940e-008 7.98376959e-007 1.27444696e-006 1.25919485e-006
      1.30639535e-006 1.31340346e-006 1.50636549e-006 2.62087065e-006
      2.59170906e-006 2.49255982e-006 2.50309267e-006 2.50426478e-006
      2.78983157e-006 3.66885047e-006 3.50902883e-006 3.45262129e-006
      3.46202251e-006 3.46202251e-006 3.46202251e-006 3.46202251e-006
      3.46202251e-006 3.46202251e-006 3.46202251e-006 3.46202251e-006
      3.46202251e-006 3.46202251e-006 3.46202251e-006 3.46202251e-006
      3.45619014e-006 3.46785487e-006 3.45619014e-006 3.44452565e-006
      3.57283648e-006 3.59616570e-006 3.45619014e-006 3.44565728e-006
      3.45732178e-006 3.45092894e-006 3.56052942e-006 3.53247060e-006
      3.44329828e-006 3.46888214e-006 2.12715031e-006 1.29029934e-006
      2.15894238e-006 2.27453370e-006 1.96589758e-006 1.77652896e-006
      1.98290536e-006 2.08676011e-006 1.94905988e-006 1.73598369e-006
      1.49302468e-006 1.48675667e-006 1.46471643e-006 1.46838977e-006
      1.46104310e-006 1.45369631e-006 1.62267099e-006 1.42063607e-006
      1.67777137e-006 1.64471112e-006 1.64838445e-006 1.64838445e-006
      1.66527241e-006 1.69570160e-006 1.45024126e-006 8.31450279e-007
      9.18932869e-007 1.43598447e-006 1.31213244e-006 1.45002298e-006
      1.63369100e-006 1.46669265e-006 1.48845379e-006 1.52349025e-006
      1.53083693e-006 1.53083693e-006 1.51247013e-006 1.91286654e-006
      2.07449443e-006 2.07449443e-006 2.06714753e-006 2.07449443e-006 0.
      0. 0. 0. 0. 0. 0. 0. 0. 0. 0. 3.13285131e-009 2.68846256e-009
      1.96070227e-009 1.17214893e-009 5.09355358e-009 1.36120804e-007
      1.09712119e-006 1.28824172e-006 1.23097425e-006 1.31343211e-006
      1.31286981e-006 2.04293815e-006 2.59170906e-006 2.46923037e-006
      2.49839195e-006 2.50422431e-006 2.59710532e-006 3.26459576e-006
      3.50432833e-006 3.44322007e-006 3.46202251e-006 3.46202251e-006
      3.46202251e-006 3.46202251e-006 3.46202251e-006 3.46202251e-006
      3.46202251e-006 3.46202251e-006 3.46202251e-006 3.46202251e-006
      3.46202251e-006 3.46202251e-006 3.46202251e-006 3.46202251e-006
      3.46202251e-006 3.46785487e-006 3.46785487e-006 3.44452565e-006
      3.59616570e-006 3.61949492e-006 3.55533939e-006 3.45619014e-006
      3.46107367e-006 3.44138289e-006 3.54281565e-006 3.43940178e-006
      3.29048862e-006 1.22426422e-006 1.97783402e-006 2.11687052e-006
      2.31478066e-006 2.26018506e-006 2.09456857e-006 1.86295381e-006
      1.74048739e-006 1.36894027e-006 1.72669627e-006 1.69257873e-006
      1.48551101e-006 1.71817840e-006 1.69613816e-006 1.70715828e-006
      1.70348494e-006 1.68879149e-006 1.61165087e-006 1.69613816e-006
      1.67777137e-006 1.69981149e-006 1.68879149e-006 1.68879149e-006
      1.69438033e-006 1.67498274e-006 1.03365426e-006 1.68856161e-006
      1.61362709e-006 1.58791352e-006 1.61899766e-006 1.69048860e-006
      1.71280783e-006 1.64471112e-006 1.56022384e-006 1.57859063e-006
      1.56757051e-006 1.52716359e-006 1.27737508e-006 1.86511284e-006
      1.92021321e-006 2.07449443e-006 2.07082098e-006 0. 0. 0. 0. 0. 0.
      0. 0. 0. 0. 0. 0. 1.96070227e-009 1.17214893e-009 3.92140453e-009
      1.54030158e-008 3.44543139e-007 1.30741898e-006 1.22786037e-006
      1.28291481e-006 1.30460387e-006 1.30170088e-006 2.58004434e-006
      2.53921826e-006 2.49255982e-006 2.48672745e-006 2.50422431e-006
      2.71932186e-006 3.63594609e-006 3.45379340e-006 3.46789534e-006
      3.46672323e-006 3.46202251e-006 3.46202251e-006 3.46202251e-006
      3.46202251e-006 3.46202251e-006 3.46202251e-006 3.46202251e-006
      3.46202251e-006 3.46202251e-006 3.46202251e-006 3.46202251e-006
      3.45035778e-006 3.47368723e-006 3.45619014e-006 3.46202251e-006
      3.46202251e-006 3.46202251e-006 3.45619014e-006 3.52034567e-006
      3.50284859e-006 3.46202251e-006 3.45152739e-006 3.45562967e-006
      3.45661647e-006 3.42348540e-006 2.25626604e-006 1.43493526e-006
      2.11082374e-006 2.08442384e-006 2.06908840e-006 2.19132744e-006
      1.46685818e-006 1.51398456e-006 1.56627448e-006 1.66507948e-006
      1.72444561e-006 1.84780413e-006 1.68247198e-006 1.68879149e-006
      1.69143755e-006 1.68879149e-006 1.69613816e-006 1.68879149e-006
      1.69981149e-006 1.68511815e-006 1.69981149e-006 1.67777137e-006
      1.68879149e-006 1.70567932e-006 1.69635643e-006 1.46956381e-006
      1.43547288e-006 1.70002988e-006 1.68314193e-006 1.69246482e-006
      1.70178771e-006 1.68879149e-006 1.68879149e-006 1.68879149e-006
      1.69613816e-006 1.68879149e-006 1.69246482e-006 1.69246482e-006
      1.67777137e-006 1.51981692e-006 1.49777668e-006 1.51614347e-006
      2.04143407e-006 0. 0. 0. 0. 0. 0. 0. 0. 0. 0. 0. 0.
      6.60986688e-009 2.68846256e-009 0. 6.96553144e-008 8.53456470e-007
      1.31135562e-006 1.21897165e-006 1.31585102e-006 1.31836259e-006
      1.48303627e-006 2.55088275e-006 2.52755353e-006 2.49255982e-006
      2.50952303e-006 2.51719462e-006 2.80393328e-006 3.61597131e-006
      3.45967828e-006 3.45497756e-006 3.45614967e-006 3.46202251e-006
      3.46202251e-006 3.46202251e-006 3.46202251e-006 3.46202251e-006
      3.46202251e-006 3.46202251e-006 3.46202251e-006 3.46202251e-006
      3.46202251e-006 3.46202251e-006 3.46202251e-006 3.46202251e-006
      3.46202251e-006 3.46202251e-006 3.46202251e-006 3.45619014e-006
      3.47838773e-006 3.65918936e-006 3.46785487e-006 3.45035778e-006
      3.47255536e-006 3.40079032e-006 3.43849570e-006 2.96534654e-006
      1.40853695e-006 1.63145717e-006 2.11752240e-006 1.83650991e-006
      1.40945610e-006 1.38153337e-006 1.85400438e-006 1.73032311e-006
      1.69122961e-006 1.68419444e-006 1.69635643e-006 1.88448553e-006
      1.68776421e-006 1.68511815e-006 1.68144470e-006 1.69613816e-006
      1.67674409e-006 1.68879149e-006 1.68879149e-006 1.69613816e-006
      1.68511815e-006 1.69246482e-006 1.68879149e-006 1.66044686e-006
      1.51294159e-006 1.03814011e-006 1.65677352e-006 1.67184282e-006
      1.68681527e-006 1.68511815e-006 1.68879149e-006 1.69076770e-006
      1.68511815e-006 1.69246482e-006 1.68879149e-006 1.69246482e-006
      1.68511815e-006 1.69246482e-006 1.68879149e-006 1.69246482e-006
      1.68879149e-006 1.61165087e-006 1.31778199e-006 0. 0. 0. 0. 0. 0.
      0. 0. 0. 0. 0. -8.61062954e-009 -6.16785678e-010 -1.78893467e-009
      5.82131365e-009 1.90910058e-007 1.30490662e-006 1.24832729e-006
      1.30432204e-006 1.31252989e-006 1.30934973e-006 2.32459479e-006
      2.57905504e-006 2.49138748e-006 2.50539642e-006 2.49721984e-006
      2.61618379e-006 3.48082494e-006 3.44601062e-006 3.46106162e-006
      3.46340585e-006 3.47371565e-006 3.45990134e-006 3.44955129e-006
      3.46202251e-006 3.45384592e-006 3.45971876e-006 3.46319462e-006
      3.45754506e-006 3.46319462e-006 3.45189551e-006 3.45189551e-006
      3.46319462e-006 3.44489104e-006 3.45501803e-006 3.46337742e-006
      3.46202251e-006 3.45134458e-006 3.45637295e-006 3.45754506e-006
      3.46785487e-006 3.46202251e-006 3.45387184e-006 3.46418142e-006
      3.44877662e-006 2.62694107e-006 1.48637753e-006 9.81236440e-007
      1.25722329e-006 1.67866676e-006 1.62212928e-006 1.65334041e-006
      1.68692873e-006 1.85675628e-006 1.85679687e-006 1.68295912e-006
      1.68522251e-006 1.70575777e-006 1.82878330e-006 1.73212447e-006
      1.67733560e-006 1.68409088e-006 1.69349210e-006 1.68511815e-006
      1.69349210e-006 1.70376393e-006 1.68879149e-006 1.69833265e-006
      1.69070688e-006 1.68314193e-006 1.68122642e-006 9.32290732e-007
      1.54505631e-006 1.72651971e-006 1.01457999e-006 1.55885186e-006
      1.70009059e-006 1.68314193e-006 1.68879149e-006 1.68879149e-006
      1.68879149e-006 1.68879149e-006 1.68879149e-006 1.68879149e-006
      1.68879149e-006 1.68879149e-006 1.68879149e-006 1.68879149e-006
      1.68879149e-006 1.68511815e-006 0. 0. 0. 0. 0. 0. 0. 0. 0. 0.
      -5.64954616e-009 -5.64954616e-009 3.92140453e-009 3.13285131e-009
      2.80667560e-008 4.39550803e-007 1.34143522e-006 1.22720758e-006
      1.31927050e-006 1.31770173e-006 1.58864930e-006 2.46725176e-006
      2.54622273e-006 2.49974687e-006 2.48456581e-006 2.50190851e-006
      2.63352626e-006 3.53250789e-006 3.45196645e-006 3.20075105e-006
      3.14126987e-006 3.14598265e-006 3.11525514e-006 3.10608903e-006
      3.08136987e-006 2.45096498e-006 2.70494274e-006 3.10375685e-006
      3.09792449e-006 3.09792449e-006 3.17701802e-006 3.44819637e-006
      3.44837918e-006 3.18500929e-006 3.02216199e-006 2.38259099e-006
      2.24700193e-006 2.25283679e-006 2.45272986e-006 3.08610038e-006
      3.08038761e-006 2.91554807e-006 2.43520503e-006 2.31151489e-006
      1.79236815e-006 1.93609799e-006 1.49653317e-006 1.04558137e-006
      1.73872149e-006 1.80534414e-006 1.89118771e-006 1.70078636e-006
      1.67694145e-006 1.67076087e-006 1.65606093e-006 1.68182748e-006
      1.69349210e-006 1.67939015e-006 1.70646229e-006 1.88519095e-006
      1.73109720e-006 1.68879149e-006 1.68511815e-006 1.69246482e-006
      1.68041743e-006 1.65742836e-006 1.67946860e-006 1.68116571e-006
      1.69274381e-006 1.69811437e-006 1.72096691e-006 1.01359035e-006
      1.52437360e-006 1.02022955e-006 1.25569181e-006 1.71138970e-006
      1.68879149e-006 1.69444104e-006 1.68879149e-006 1.68879149e-006
      1.68879149e-006 1.68879149e-006 1.68879149e-006 1.68879149e-006
      1.68879149e-006 1.68879149e-006 1.68879149e-006 1.68879149e-006
      1.68879149e-006 1.68879149e-006 0. 0. 0. 0. 0. 0. 0. 0. 0. 0. 0.
      3.13285131e-009 8.50977599e-009 -3.96146493e-009 1.55614927e-007
      1.04529749e-006 1.24044209e-006 1.21716153e-006 1.31897468e-006
      1.30138119e-006 1.99880674e-006 2.57439478e-006 1.66324855e-006
      1.42846625e-006 1.42170143e-006 1.46504249e-006 1.61870355e-006
      2.51048164e-006 2.42270517e-006 2.66330335e-006 2.64712094e-006
      2.65768222e-006 2.68480039e-006 2.70571195e-006 2.71701106e-006
      2.88041338e-006 2.74902391e-006 2.65317635e-006 2.67129712e-006
      2.66564757e-006 2.63175048e-006 2.40576856e-006 2.40576856e-006
      2.64869914e-006 2.66645179e-006 2.85208262e-006 2.88230672e-006
      2.86301361e-006 2.83242161e-006 2.65376934e-006 2.34218078e-006
      1.94015047e-006 2.26843440e-006 2.22087215e-006 2.37073641e-006
      1.03860373e-006 5.64174456e-007 1.70660951e-006 1.72287207e-006
      1.76428171e-006 1.95979715e-006 1.76179014e-006 1.65465099e-006
      1.70197654e-006 1.90928768e-006 1.79960534e-006 1.66433051e-006
      1.69462373e-006 1.70063004e-006 1.90237461e-006 1.80528014e-006
      1.67468954e-006 1.69613816e-006 1.69349210e-006 1.61532421e-006
      1.28104841e-006 1.50145001e-006 1.69811437e-006 1.68681527e-006
      1.69070688e-006 1.63382413e-006 7.97669998e-007 1.01266448e-006
      1.31774004e-006 1.70392150e-006 1.68314193e-006 1.68314193e-006
      1.68879149e-006 1.68314193e-006 1.69444104e-006 1.68314193e-006
      1.68879149e-006 1.68879149e-006 1.68879149e-006 1.68879149e-006
      1.68879149e-006 1.68879149e-006 1.68879149e-006 1.68879149e-006
      1.68879149e-006 0. 0. 0. 0. 0. 0. 0. 0. 0. 0. 0. -1.00038144e-009
      -4.75001816e-009 1.43410723e-008 2.54245464e-007 1.08409336e-006
      1.24542498e-006 1.27115140e-006 9.34694356e-007 7.40778319e-007
      8.04303284e-007 1.37023483e-006 1.75676382e-006 1.92352172e-006
      1.95908001e-006 1.95540929e-006 2.04053504e-006 2.92779532e-006
      2.84129806e-006 2.68238523e-006 2.64731580e-006 2.66819893e-006
      2.80906352e-006 2.65886638e-006 2.64847586e-006 2.65786502e-006
      2.69867905e-006 2.70453984e-006 2.69305792e-006 2.69305792e-006
      2.74955346e-006 2.92468940e-006 2.91922265e-006 2.93052176e-006
      2.89097488e-006 2.39381484e-006 2.26425050e-006 2.22733138e-006
      2.12532723e-006 2.49422646e-006 2.05583524e-006 2.48894958e-006
      2.29309194e-006 2.09990799e-006 2.40078703e-006 1.16441231e-006
      1.77615300e-006 1.69713621e-006 1.69062730e-006 1.69283942e-006
      1.84520400e-006 1.91527988e-006 1.75030641e-006 1.69776354e-006
      1.79960534e-006 1.96874248e-006 1.78794073e-006 1.67712687e-006
      1.68879149e-006 1.80528014e-006 1.90604806e-006 1.75460036e-006
      1.68511815e-006 1.68776421e-006 1.57124396e-006 1.60967465e-006
      1.70326666e-006 1.70567932e-006 1.68879149e-006 1.63794550e-006
      1.02587910e-006 4.20581642e-007 1.53576957e-006 1.70392150e-006
      1.70200599e-006 1.69444104e-006 1.69444104e-006 1.68879149e-006
      1.68314193e-006 1.69444104e-006 1.68314193e-006 1.68879149e-006
      1.68879149e-006 1.68879149e-006 1.68879149e-006 1.68879149e-006
      1.68879149e-006 1.68879149e-006 1.68879149e-006 1.68879149e-006 0.
      0. 0. 0. 0. 0. 0. 0. 0. 0. 0. -1.34454603e-009 6.26570262e-009
      7.27177536e-008 7.49284197e-007 1.20881464e-006 1.50893172e-007
      2.25245273e-007 6.13114594e-007 5.61900094e-007 1.37869017e-006
      2.04352023e-006 1.41584064e-006 1.30784463e-006 1.31854824e-006
      1.28064551e-006 1.41676480e-006 2.30559112e-006 2.55981013e-006
      2.72834768e-006 2.67731889e-006 2.71429144e-006 2.84627822e-006
      2.68528447e-006 2.67402584e-006 2.67402584e-006 2.69705833e-006
      2.68105873e-006 2.69235784e-006 2.68670829e-006 2.73190449e-006
      2.85054512e-006 2.86184422e-006 2.86166141e-006 2.83934219e-006
      2.74627268e-006 2.50661105e-006 2.13365138e-006 2.36954747e-006
      2.47373055e-006 2.47243042e-006 2.33655351e-006 2.35484936e-006
      2.54229531e-006 1.14805300e-006 1.40796419e-006 1.70303326e-006
      1.68716360e-006 1.68013389e-006 1.68872668e-006 1.74774254e-006
      1.87346768e-006 1.75932939e-006 1.67121357e-006 1.67129451e-006
      1.84739554e-006 1.82989857e-006 1.67712687e-006 1.69218652e-006
      1.73682508e-006 1.91339473e-006 1.88886429e-006 1.70862131e-006
      1.73816397e-006 1.26370890e-006 1.62097376e-006 1.69444104e-006
      1.68511815e-006 1.62105766e-006 1.04100911e-006 1.27962448e-006
      1.24619010e-006 1.69070688e-006 1.71522061e-006 1.66236237e-006
      1.68314193e-006 1.68879149e-006 1.68879149e-006 1.68879149e-006
      1.68879149e-006 1.69444104e-006 1.68879149e-006 1.68879149e-006
      1.68879149e-006 1.68879149e-006 1.68879149e-006 1.68879149e-006
      1.68879149e-006 1.68879149e-006 1.68879149e-006 0. 0. 0. 0. 0. 0.
      0. 0. 0. 0. 0. -3.68884390e-009 -6.80972576e-008 -1.20486106e-007
      3.48563911e-009 2.47287435e-008 6.52258279e-007 7.36209529e-007
      5.41825273e-007 5.80264839e-007 8.79357174e-007 1.94029076e-006
      1.93112146e-006 1.99576266e-006 1.95528582e-006 1.95387406e-006
      2.01203375e-006 2.73290584e-006 2.93164339e-006 2.89657396e-006
      2.98415193e-006 3.17104582e-006 2.85005808e-006 2.90611774e-006
      2.97949168e-006 2.97380166e-006 2.97827910e-006 2.97262955e-006
      2.97262955e-006 2.91862216e-006 2.49298705e-006 2.48828633e-006
      2.83645954e-006 2.95188556e-006 2.88079559e-006 2.21708933e-006
      2.31171316e-006 2.51232132e-006 2.43135059e-006 2.21933669e-006
      2.54235238e-006 2.57500460e-006 2.57158308e-006 1.00870238e-006
      1.07275253e-006 1.68280155e-006 1.70099634e-006 1.69129271e-006
      1.69914165e-006 1.68879149e-006 1.73604542e-006 1.89066168e-006
      1.70544479e-006 1.69242480e-006 1.68295912e-006 1.83573093e-006
      1.84400051e-006 1.68652809e-006 1.67825851e-006 1.67468954e-006
      1.75562764e-006 1.72639659e-006 1.69430189e-006 1.52694531e-006
      1.48205595e-006 1.70178771e-006 1.69070688e-006 1.64059168e-006
      1.11915381e-006 1.32702678e-006 1.09287771e-006 1.28784609e-006
      1.70957105e-006 1.66992731e-006 1.70009059e-006 1.68879149e-006
      1.68879149e-006 1.68314193e-006 1.69444104e-006 1.68879149e-006
      1.69444104e-006 1.68879149e-006 1.68879149e-006 1.68879149e-006
      1.68879149e-006 1.68879149e-006 1.68879149e-006 1.68879149e-006
      1.68879149e-006 1.68879149e-006 0. 0. 0. 0. 0. -5.64954616e-009
      -5.64954616e-009 -5.64954616e-009 0. 0. 0. -4.37531753e-007
      -9.76308911e-007 -3.04070795e-007 3.92652908e-007 6.69959888e-007
      6.26982967e-007 7.00307567e-007 6.11654855e-007 7.27153008e-007
      1.41147154e-006 2.00595196e-006 1.91284630e-006 2.13406156e-006
      2.01429930e-006 1.89356547e-006 1.89235288e-006 2.27758574e-006
      3.22774849e-006 3.02455987e-006 2.98433474e-006 3.18229218e-006
      3.17236891e-006 3.00957754e-006 2.98345412e-006 2.99129874e-006
      2.99713111e-006 2.99129874e-006 2.61867262e-006 1.71721877e-006
      2.01177249e-006 1.97489931e-006 1.63169511e-006 1.26411680e-006
      9.90190301e-007 9.61673322e-007 1.13101407e-006 7.98237807e-007
      2.10072562e-006 2.44363127e-006 2.43586283e-006 1.56613135e-006
      1.26128600e-006 7.61424189e-007 1.39460940e-006 1.69230236e-006
      1.67770997e-006 1.69305122e-006 1.68761926e-006 1.68698080e-006
      1.69016130e-006 1.89142224e-006 1.80477673e-006 1.67918051e-006
      1.67659323e-006 1.85792851e-006 1.82293468e-006 1.67712687e-006
      1.68879149e-006 1.69635643e-006 1.68122642e-006 1.68144470e-006
      1.67387975e-006 1.42129102e-006 1.64449284e-006 1.67182520e-006
      1.67089388e-006 1.11445320e-006 1.06627613e-006 9.82284519e-007
      1.62827143e-006 1.69349210e-006 1.69635643e-006 1.69635643e-006
      1.69349210e-006 1.68879149e-006 1.68879149e-006 1.68879149e-006
      1.68879149e-006 1.68879149e-006 1.68879149e-006 1.68879149e-006
      1.68879149e-006 1.68879149e-006 1.68879149e-006 1.68879149e-006
      1.68879149e-006 1.68879149e-006 1.68879149e-006 1.68879149e-006 0.
      0. 0. 0. 0. 0. -5.64954616e-009 0. -5.64954616e-009
      -5.64954616e-009 -3.05075503e-007 -9.54773327e-007
      -4.31052200e-007 -1.31962864e-007 3.85831214e-007 6.49112735e-007
      6.29489762e-007 7.15226406e-007 7.13625468e-007 6.95817675e-007
      1.40752775e-006 1.98801422e-006 1.92855941e-006 2.13447402e-006
      2.02833235e-006 2.11228848e-006 2.11589804e-006 2.23293750e-006
      2.98589225e-006 2.41322027e-006 2.36133042e-006 1.81090832e-006
      1.54075576e-006 1.49215748e-006 2.44880630e-006 2.35864195e-006
      2.37387553e-006 2.37769564e-006 1.28084105e-006 1.95716120e-006
      2.07436165e-006 2.05144465e-006 1.87996000e-006 1.27404201e-006
      1.61657681e-006 1.66200709e-006 1.41719170e-006 1.71978957e-006
      1.15117041e-006 8.69723294e-007 1.08193126e-006 1.78826770e-006
      1.72261900e-006 1.38157645e-006 1.35693460e-006 1.73494800e-006
      1.66991538e-006 1.68996360e-006 1.68687598e-006 1.69177429e-006
      1.72980469e-006 1.87893602e-006 1.80274446e-006 1.68622546e-006
      1.68825784e-006 1.71212071e-006 1.85209615e-006 1.71795307e-006
      1.68879149e-006 1.67366147e-006 1.69827194e-006 1.69613816e-006
      1.63955883e-006 1.44613136e-006 1.70715828e-006 1.73035062e-006
      1.40726127e-006 2.71679340e-007 9.86756277e-007 1.57914724e-006
      1.68122642e-006 1.70105716e-006 1.68879149e-006 1.69165583e-006
      1.68409088e-006 1.68879149e-006 1.68879149e-006 1.68879149e-006
      1.68879149e-006 1.68879149e-006 1.68879149e-006 1.68879149e-006
      1.68879149e-006 1.68879149e-006 1.68879149e-006 1.68879149e-006
      1.68879149e-006 1.68879149e-006 1.68879149e-006 1.68879149e-006 0.
      0. 0. 0. 0. 0. -5.64954616e-009 -5.64954616e-009 0.
      -3.38972761e-008 -7.11842802e-007 -6.11969995e-007
      -6.23405299e-007 -2.03122823e-007 4.00030586e-007 6.61491640e-007
      7.09548715e-007 7.04414219e-007 6.95817675e-007 1.22905391e-007
      2.59886065e-007 1.91882009e-006 1.90518972e-006 1.92504285e-006
      1.91223467e-006 1.25063616e-006 6.16311468e-007 1.36993333e-006
      1.55424152e-006 1.81328801e-006 1.77935544e-006 1.94118866e-006
      2.08919732e-006 2.08686356e-006 1.89842820e-006 1.99880378e-006
      1.96720498e-006 1.96564815e-006 2.25771487e-006 2.06691448e-006
      1.23565815e-006 1.26885698e-006 1.18876460e-006 1.57966679e-006
      1.56093984e-006 1.28186309e-006 7.97430289e-007 8.47683282e-007
      1.51087943e-006 1.86628222e-006 1.73355295e-006 1.66760594e-006
      1.65484812e-006 1.03012121e-006 1.17498257e-006 1.69046905e-006
      1.75350135e-006 1.73545413e-006 1.69488749e-006 1.68525094e-006
      1.74635568e-006 1.75585069e-006 1.72082787e-006 1.68505335e-006
      1.68879149e-006 1.65962990e-006 1.86376076e-006 1.74711454e-006
      1.68295912e-006 1.69246482e-006 1.68879149e-006 1.69076770e-006
      1.67042469e-006 1.41153146e-006 1.67107953e-006 1.32750733e-006
      5.43788815e-007 1.21008873e-006 1.70957105e-006 1.68879149e-006
      1.70105716e-006 1.69635643e-006 1.67652581e-006 1.68879149e-006
      1.69635643e-006 1.68879149e-006 1.68879149e-006 1.68879149e-006
      1.68879149e-006 1.68879149e-006 1.68879149e-006 1.68879149e-006
      1.68879149e-006 1.68879149e-006 1.68879149e-006 1.68879149e-006
      1.68879149e-006 1.68879149e-006 1.68879149e-006 1.68879149e-006 0.
      0. 0. 0. 0. 0. 0. 0. -5.64954616e-009 -2.20332311e-007
      -1.12425971e-006 -5.37272228e-007 -8.11262879e-008
      -1.66105693e-007 4.13834101e-007 6.68637256e-007 7.17411410e-007
      3.44644377e-007 -2.94664659e-007 -5.81067638e-007 5.55235886e-007
      3.89836885e-007 2.58455316e-007 2.72984295e-007 2.63583047e-007
      6.54659630e-007 1.27861449e-006 2.13683779e-006 1.98074622e-006
      1.77935544e-006 1.98668226e-006 1.92605853e-006 1.72162743e-006
      1.25747351e-006 2.12744931e-006 2.08980032e-006 1.90537571e-006
      2.12108762e-006 1.25609267e-006 1.42911858e-006 2.32979596e-006
      2.16951184e-006 1.63084849e-006 1.79027506e-006 1.53036956e-006
      1.76562128e-006 1.74600814e-006 1.72731939e-006 1.74176728e-006
      1.78957509e-006 1.75851039e-006 1.76464516e-006 1.64572850e-006
      1.19726326e-006 1.82459178e-006 1.69442899e-006 1.69281600e-006
      1.70009616e-006 1.65838742e-006 1.69177429e-006 1.85008162e-006
      1.91695358e-006 1.73419426e-006 1.68942995e-006 1.69462373e-006
      1.68295912e-006 1.85209615e-006 1.74128229e-006 1.68879149e-006
      1.67946860e-006 1.68879149e-006 1.68511815e-006 1.66329619e-006
      1.43187447e-006 1.46962452e-006 7.89522119e-007 1.13265708e-006
      1.63132950e-006 1.70194448e-006 1.71794420e-006 1.67939015e-006
      1.69819270e-006 1.68409088e-006 1.70862211e-006 1.68122642e-006
      1.68879149e-006 1.68879149e-006 1.68879149e-006 1.68879149e-006
      1.68879149e-006 1.68879149e-006 1.68879149e-006 1.68879149e-006
      1.68879149e-006 1.68879149e-006 1.68879149e-006 1.68879149e-006
      1.68879149e-006 1.68879149e-006 1.68879149e-006 0. 0. 0. 0. 0. 0.
      0. -1.12990923e-008 -1.24290011e-007 -1.05081563e-006
      -5.70604186e-007 -5.61831143e-007 -1.40767597e-007
      -1.43368766e-007 6.09822905e-007 6.48238256e-007 -6.78773972e-007
      -1.00150612e-006 -1.64865043e-007 -3.52539402e-008 6.46232820e-007
      1.19156277e-006 1.10249971e-006 1.10799954e-006 1.14409181e-006
      6.56402904e-007 1.43682837e-006 2.14316765e-006 1.97901363e-006
      1.79458902e-006 1.97501754e-006 1.92605853e-006 1.86267414e-006
      2.06979371e-006 2.06406503e-006 2.09248878e-006 1.90806418e-006
      2.05763172e-006 2.07152652e-006 2.04752200e-006 2.06806567e-006
      1.44259889e-006 1.54832799e-006 1.80188283e-006 1.86624800e-006
      1.84510588e-006 1.79997471e-006 1.82694703e-006 1.81669350e-006
      2.03846821e-006 1.81082521e-006 1.79827566e-006 1.82115264e-006
      1.78439097e-006 1.82018607e-006 1.80579934e-006 1.83525447e-006
      1.71677209e-006 1.78332425e-006 1.85211752e-006 1.94357267e-006
      1.76279502e-006 1.68505335e-006 1.68772419e-006 1.68879149e-006
      1.65962990e-006 1.86959312e-006 1.74711454e-006 1.68295912e-006
      1.69246482e-006 1.69076770e-006 1.69739883e-006 1.58297962e-006
      1.60595357e-006 1.14586885e-006 1.26784118e-006 1.30280375e-006
      1.72557077e-006 1.81562950e-006 1.82981057e-006 1.74336287e-006
      1.67468954e-006 1.69819270e-006 1.69452017e-006 1.69349210e-006
      1.68879149e-006 1.68879149e-006 1.68879149e-006 1.68879149e-006
      1.68879149e-006 1.68879149e-006 1.68879149e-006 1.68879149e-006
      1.68879149e-006 1.68879149e-006 1.68879149e-006 1.68879149e-006
      1.68879149e-006 1.68879149e-006 1.68879149e-006 0.
      -5.64954616e-009 0. 0. -5.64954616e-009 0. -1.32145539e-008
      -1.09256838e-007 -9.39740119e-007 -9.66072434e-007
      -5.72519639e-007 -5.68223982e-007 -1.52999490e-007
      -1.49844752e-007 2.77865464e-008 -9.95839855e-007 -1.01133963e-007
      -1.02701847e-007 -6.44376371e-007 -9.08839922e-007
      -1.93527740e-007 1.02740921e-006 1.12647490e-006 1.11327995e-006
      1.10955625e-006 1.15776902e-006 2.03563309e-006 2.08467486e-006
      2.06911750e-006 2.07992275e-006 2.07119774e-006 2.08255983e-006
      2.07888638e-006 2.07154881e-006 2.09702944e-006 2.18203286e-006
      2.18472132e-006 2.18544915e-006 2.17835941e-006 2.18074842e-006
      1.75045375e-006 1.49219738e-006 1.76701406e-006 1.71029922e-006
      1.69418513e-006 1.75131913e-006 1.78559276e-006 1.78021594e-006
      1.78760502e-006 2.00544287e-006 1.85165743e-006 1.77483901e-006
      1.82250494e-006 1.80625591e-006 1.77820652e-006 1.79220547e-006
      1.79690608e-006 1.82393774e-006 1.80769075e-006 1.85478075e-006
      1.74732315e-006 1.68208192e-006 1.62249307e-006 1.61576259e-006
      1.68879149e-006 1.68456984e-006 1.87271814e-006 1.76406320e-006
      1.70009059e-006 1.71796341e-006 1.71138970e-006 1.21621497e-006
      1.33582887e-006 1.17220281e-006 1.11069778e-006 1.04205481e-006
      1.78761888e-006 1.82510996e-006 1.74977527e-006 1.75276409e-006
      1.73579781e-006 1.67939015e-006 1.68879149e-006 1.68605152e-006
      1.68879149e-006 1.68879149e-006 1.68879149e-006 1.68879149e-006
      1.68879149e-006 1.68879149e-006 1.68879149e-006 1.68879149e-006
      1.68879149e-006 1.68879149e-006 1.68879149e-006 1.68879149e-006
      1.68879149e-006 1.68879149e-006 1.68879149e-006 1.68879149e-006
      -5.64954616e-009 -5.64954616e-009 -5.64954616e-009
      -5.64954616e-009 -5.64954616e-009 -1.51300146e-008
      -4.51963700e-007 -1.03386697e-006 -1.02448337e-006
      -5.89468243e-007 -6.00767351e-007 -5.67496215e-007
      -2.67202353e-007 -1.33945082e-006 -5.44849172e-007
      -2.38383961e-007 -6.32591295e-008 -1.27307786e-007
      -1.99839505e-007 1.65912084e-008 6.88320426e-007 1.20041057e-006
      1.18345588e-006 1.19696051e-006 1.20037089e-006 1.80628433e-006
      2.25565122e-006 2.12597729e-006 2.09442692e-006 2.18040623e-006
      2.19598041e-006 2.18942205e-006 2.18177570e-006 2.18642481e-006
      2.18373634e-006 2.19185335e-006 2.19620301e-006 2.15252794e-006
      2.16824992e-006 2.12238888e-006 1.55395753e-006 1.75066077e-006
      1.87749322e-006 1.77272659e-006 1.68268673e-006 1.70894657e-006
      1.70766214e-006 1.69949385e-006 1.69484463e-006 1.75695766e-006
      2.03749710e-006 1.86508305e-006 1.70310068e-006 1.75758748e-006
      1.68946781e-006 1.68481859e-006 1.67636961e-006 1.72510011e-006
      1.73479964e-006 1.73993305e-006 1.70628516e-006 1.55033945e-006
      1.15666683e-006 1.17521643e-006 1.30480510e-006 1.32648950e-006
      1.51932124e-006 1.40598286e-006 1.30481476e-006 1.00495606e-006
      1.00698651e-006 1.05911465e-006 1.20706170e-006 9.12653604e-007
      1.28614556e-006 1.53629901e-006 1.70194448e-006 1.87116734e-006
      1.66998893e-006 1.68307906e-006 1.68213012e-006 1.69349210e-006
      1.69349210e-006 1.69075213e-006 1.68683073e-006 1.68879149e-006
      1.68879149e-006 1.68879149e-006 1.68879149e-006 1.68879149e-006
      1.68879149e-006 1.68879149e-006 1.68879149e-006 1.68879149e-006
      1.68879149e-006 1.68879149e-006 1.68879149e-006 1.68879149e-006
      1.68879149e-006 1.68879149e-006 0. -5.64954616e-009 0.
      -4.51963693e-008 -3.22024135e-007 -8.41782366e-007
      -9.92501555e-007 -9.34090565e-007 -5.53655525e-007
      -5.95117797e-007 -5.98851898e-007 -9.98701694e-007
      -1.87883711e-006 -9.29797238e-007 -1.60550087e-007
      -1.45703964e-007 -6.36586677e-008 2.39246267e-009 1.26413315e-008
      5.09783661e-007 1.38218661e-006 1.12548935e-006 1.15857824e-006
      1.24024416e-006 1.32879893e-006 2.08414485e-006 2.36842106e-006
      2.26578641e-006 2.26707084e-006 2.18586024e-006 2.17089428e-006
      2.12833220e-006 2.08941765e-006 2.09975246e-006 2.08569281e-006
      2.09505174e-006 2.07391167e-006 2.16492731e-006 2.23806637e-006
      1.51461234e-006 1.56428734e-006 1.86483896e-006 1.86483010e-006
      1.87490764e-006 1.87216779e-006 1.86942782e-006 1.73109720e-006
      1.72174737e-006 1.69550424e-006 1.65495953e-006 1.76483240e-006
      1.84898261e-006 1.65651636e-006 1.72783405e-006 1.77404308e-006
      1.67950247e-006 1.68359497e-006 1.69503585e-006 1.73919386e-006
      1.69816860e-006 1.69209818e-006 1.71555666e-006 1.74111995e-006
      1.77865059e-006 1.42092108e-006 1.47302831e-006 1.50315600e-006
      1.23502093e-006 8.72926307e-007 1.10737687e-006 1.38315795e-006
      1.71781221e-006 1.44679018e-006 1.49846949e-006 1.76946719e-006
      1.67641770e-006 1.86087880e-006 1.70472958e-006 1.69812984e-006
      1.68879149e-006 1.68879149e-006 1.68957069e-006 1.68016948e-006
      1.68683073e-006 1.69545285e-006 1.68879149e-006 1.68879149e-006
      1.68879149e-006 1.68879149e-006 1.68879149e-006 1.68879149e-006
      1.68879149e-006 1.68879149e-006 1.68879149e-006 1.68879149e-006
      1.68879149e-006 1.68879149e-006 1.68879149e-006 1.68879149e-006
      1.68879149e-006 -1.12990923e-008 0. -4.51963693e-008
      -8.24833762e-007 -1.17510558e-006 -7.04374656e-007
      -5.87552790e-007 -5.83818746e-007 -5.93202344e-007
      -6.00767351e-007 -1.91707863e-006 -1.67271503e-006
      -1.06317509e-006 -4.39623562e-007 -1.11813598e-007
      -1.77176958e-007 -5.49663604e-008 -5.21568317e-008
      -6.10974027e-008 4.72592660e-007 1.37213522e-006 1.22136316e-006
      1.19358140e-006 1.11237091e-006 1.49151253e-006 2.16089052e-006
      2.07994435e-006 2.08379265e-006 2.08922097e-006 2.07567587e-006
      2.06783307e-006 2.11690212e-006 2.14680858e-006 2.15023397e-006
      2.14191141e-006 2.14826423e-006 2.17443016e-006 2.23357779e-006
      2.08339657e-006 1.65157996e-006 1.80900327e-006 1.76979654e-006
      1.73900798e-006 1.72083048e-006 1.72115597e-006 1.82455324e-006
      1.81978442e-006 1.89293098e-006 1.85600220e-006 1.79019332e-006
      1.84557678e-006 1.99407305e-006 1.77088839e-006 1.78632331e-006
      1.82268798e-006 1.80441577e-006 1.67631538e-006 1.72588318e-006
      1.73802175e-006 1.69466421e-006 1.68825784e-006 1.67821804e-006
      1.69444104e-006 1.68291865e-006 1.67910298e-006 1.88571448e-006
      1.76274273e-006 1.23403549e-006 1.66299139e-006 1.71697843e-006
      1.68496058e-006 1.69662906e-006 1.41250518e-006 1.59819297e-006
      1.76012247e-006 1.68235124e-006 1.86366390e-006 1.62559070e-006
      1.51188215e-006 1.67903318e-006 1.69271289e-006 1.71035924e-006
      1.71035924e-006 1.68997292e-006 1.68409088e-006 1.68879149e-006
      1.68879149e-006 1.68879149e-006 1.68879149e-006 1.68879149e-006
      1.68879149e-006 1.68879149e-006 1.68879149e-006 1.68879149e-006
      1.68879149e-006 1.68879149e-006 1.68879149e-006 1.68879149e-006
      1.68879149e-006 1.68879149e-006 0. -3.95468227e-008
      -6.10151005e-007 -1.25984877e-006 -5.98851898e-007
      -5.81903237e-007 -6.00767351e-007 -6.00767351e-007
      -6.78332924e-007 -1.78655807e-006 -1.47830826e-006
      -1.36254982e-006 -8.83319103e-007 -3.60707048e-007
      -1.22895059e-007 -1.71011479e-007 -7.37897707e-008
      -6.55589503e-008 1.38163401e-007 9.90031481e-007 1.32989965e-006
      1.11186887e-006 1.11646818e-006 1.24896712e-006 1.91673644e-006
      2.13369162e-006 2.06245613e-006 2.07449443e-006 2.06979371e-006
      2.07992275e-006 2.07650646e-006 2.07326138e-006 2.07180597e-006
      2.06518689e-006 2.06617187e-006 2.08767960e-006 2.12232567e-006
      2.05042579e-006 1.33734011e-006 1.71721956e-006 1.65619474e-006
      1.83258203e-006 1.87372166e-006 1.84803594e-006 1.81128780e-006
      1.74123340e-006 1.68332826e-006 1.73378567e-006 1.82174517e-006
      1.81927760e-006 1.85967872e-006 1.99382180e-006 1.77601419e-006
      1.81374799e-006 1.84699388e-006 1.94004861e-006 1.85210718e-006
      1.76280003e-006 1.68993950e-006 1.68409088e-006 1.69561315e-006
      1.68667043e-006 1.68815302e-006 1.68984525e-006 1.68126201e-006
      1.68615043e-006 1.41262456e-006 1.56581973e-006 1.69678276e-006
      1.69542591e-006 1.70392150e-006 1.69729651e-006 1.46342848e-006
      1.61301193e-006 1.74772572e-006 1.65695030e-006 1.86836451e-006
      1.47983883e-006 1.20644961e-006 1.70300018e-006 1.74095123e-006
      1.77702304e-006 1.76329820e-006 1.71820204e-006 1.67428732e-006
      1.68879149e-006 1.68879149e-006 1.68879149e-006 1.68879149e-006
      1.68879149e-006 1.68879149e-006 1.68879149e-006 1.68879149e-006
      1.68879149e-006 1.68879149e-006 1.68879149e-006 1.68879149e-006
      1.68879149e-006 1.68879149e-006 1.68879149e-006 -7.56500729e-009
      -1.07341378e-007 -1.25984877e-006 -6.40314170e-007
      -5.81903237e-007 -5.87552790e-007 -6.00767351e-007
      -6.00767351e-007 -9.33627689e-007 -1.77334357e-006
      -1.53882831e-006 -1.51581060e-006 -8.69685948e-007
      -1.80000470e-007 -1.38162747e-007 -1.83804900e-007
      -6.50526175e-008 -7.19657720e-008 1.82463239e-007 1.34118693e-006
      1.02739466e-006 8.99778740e-007 9.01482281e-007 1.22582628e-006
      2.03903642e-006 1.85203817e-006 1.87514797e-006 1.86628495e-006
      1.86511284e-006 1.86511284e-006 1.86628495e-006 1.86197997e-006
      1.86197997e-006 1.86261161e-006 1.86315208e-006 1.86957470e-006
      1.32335526e-006 1.45712170e-006 1.66302652e-006 1.58299179e-006
      1.34054994e-006 1.69760278e-006 1.69319253e-006 1.72873331e-006
      1.75668833e-006 1.85157228e-006 1.85391809e-006 1.73052240e-006
      1.71170325e-006 1.67288158e-006 1.69844395e-006 1.82866563e-006
      1.80388088e-006 1.67523206e-006 1.71463023e-006 1.81259111e-006
      1.78666221e-006 1.87481703e-006 1.86285240e-006 1.71838599e-006
      1.69014402e-006 1.67928579e-006 1.68167776e-006 1.69182442e-006
      1.52974178e-006 1.50756682e-006 1.68154099e-006 1.68295912e-006
      1.67755309e-006 1.69659063e-006 1.75379000e-006 1.24488236e-006
      8.51772029e-007 1.52768905e-006 1.69591431e-006 1.67046710e-006
      1.86539205e-006 1.64842152e-006 1.10138967e-006 1.73137460e-006
      1.77333425e-006 1.71059173e-006 1.68659824e-006 1.69640168e-006
      1.69444104e-006 1.68314193e-006 1.68879149e-006 1.68314193e-006
      1.68879149e-006 1.69444104e-006 1.68879149e-006 1.68879149e-006
      1.68879149e-006 1.68879149e-006 1.68879149e-006 1.68879149e-006
      1.68879149e-006 1.68879149e-006 1.68879149e-006 1.68879149e-006
      -3.58127394e-008 -9.45389672e-007 -6.29015119e-007
      -5.93202344e-007 -5.93202344e-007 -5.93202344e-007
      -6.08332357e-007 -5.93202344e-007 -1.73551848e-006
      -1.48587321e-006 -1.39509314e-006 -1.36179096e-006
      -8.46193927e-007 -1.57225159e-007 -1.32942034e-007
      -1.86209988e-007 -6.60375150e-008 -7.77980844e-008 2.03376743e-007
      9.04859746e-007 5.26521433e-007 3.87254175e-007 5.38659435e-007
      1.38173459e-006 1.37497932e-006 1.36015876e-006 1.35720404e-006
      1.35701680e-006 1.35936114e-006 1.35818902e-006 1.35701680e-006
      1.35936114e-006 1.35936114e-006 1.35701680e-006 1.36186236e-006
      1.34888160e-006 1.70985584e-006 1.58961075e-006 1.42038812e-006
      1.26268162e-006 1.57662998e-006 1.68879149e-006 1.69050418e-006
      1.68755855e-006 1.67826022e-006 1.71943498e-006 1.76895765e-006
      1.82383985e-006 1.80662846e-006 1.72519697e-006 1.67129451e-006
      1.82803922e-006 1.85601755e-006 1.68376937e-006 1.70755845e-006
      1.71401587e-006 1.69395980e-006 1.72554076e-006 1.78203379e-006
      1.45765296e-006 1.62575361e-006 1.71396994e-006 1.68610302e-006
      1.71077045e-006 1.14289958e-006 1.69597593e-006 1.45951185e-006
      1.40478653e-006 1.41591136e-006 9.66740345e-007 9.73696501e-007
      9.16514580e-007 1.68540851e-006 1.67170072e-006 1.68654515e-006
      1.66897712e-006 1.87681690e-006 1.78723531e-006 1.39582642e-006
      1.30324611e-006 1.73342255e-006 1.67702729e-006 1.69271289e-006
      1.67922053e-006 1.69075213e-006 1.68879149e-006 1.68879149e-006
      1.68314193e-006 1.68314193e-006 1.68879149e-006 1.68879149e-006
      1.68879149e-006 1.68879149e-006 1.68879149e-006 1.68879149e-006
      1.68879149e-006 1.68879149e-006 1.68879149e-006 1.68879149e-006
      1.68879149e-006 -4.71118327e-008 -1.11296060e-006 -5.19758260e-007
      -5.93202344e-007 -5.95117797e-007 -6.00767351e-007
      -5.93202344e-007 -6.08332357e-007 -1.73551848e-006
      -1.48587321e-006 -1.37239817e-006 -1.37888173e-006
      -8.56103270e-007 -1.45859630e-007 -1.44939207e-007
      -1.88711198e-007 -1.33861576e-007 -3.71892270e-007 5.36839991e-007
      7.08532752e-007 8.59927411e-007 7.65834216e-007 9.60897751e-007
      1.72975831e-006 1.47632807e-006 1.48841775e-006 1.49674941e-006
      1.49410334e-006 1.49293123e-006 1.49410334e-006 1.49410334e-006
      1.49410334e-006 1.49561970e-006 1.49214259e-006 1.48039476e-006
      1.65009715e-006 1.37585891e-006 1.52328948e-006 1.69226405e-006
      1.68588588e-006 1.69172074e-006 1.67898793e-006 1.68658266e-006
      1.68879149e-006 1.68879149e-006 1.68487009e-006 1.72139562e-006
      1.77629533e-006 1.81778489e-006 1.81246071e-006 1.72759997e-006
      1.83072768e-006 1.84352564e-006 1.68771896e-006 1.74002309e-006
      1.68811516e-006 1.68006648e-006 1.60082413e-006 1.44944931e-006
      5.90613865e-007 6.19308139e-007 8.45976786e-007 8.83868552e-007
      5.51201481e-007 1.31415914e-006 1.56161445e-006 1.39895428e-006
      1.40866791e-006 1.42695205e-006 1.71519719e-006 1.77797222e-006
      1.66828454e-006 1.68806366e-006 1.67797464e-006 1.69882662e-006
      1.68372685e-006 1.85306317e-006 1.86751663e-006 1.68721431e-006
      1.11278337e-006 1.50039568e-006 1.70770079e-006 1.68683073e-006
      1.69640168e-006 1.69812984e-006 1.68879149e-006 1.68879149e-006
      1.68879149e-006 1.68879149e-006 1.68879149e-006 1.68879149e-006
      1.68879149e-006 1.68879149e-006 1.68879149e-006 1.68879149e-006
      1.68879149e-006 1.68879149e-006 1.68879149e-006 1.68879149e-006
      1.68879149e-006 -4.71118327e-008 -1.10731105e-006 -5.32972820e-007
      -6.15897363e-007 -5.93202344e-007 -5.93202344e-007
      -7.67197548e-007 -1.07736287e-006 -1.75064849e-006
      -1.47074320e-006 -1.38752819e-006 -1.37042230e-006
      -8.56103270e-007 -1.67382510e-007 -1.58189238e-007
      -4.18172220e-007 -6.80662822e-007 -6.75492174e-007 8.55741689e-007
      4.87149123e-007 4.80855533e-007 4.46256507e-007 5.81514314e-007
      1.51974291e-006 1.43753994e-006 1.46005823e-006 1.45570857e-006
      1.45369631e-006 1.45369631e-006 1.45369631e-006 1.45721276e-006
      1.45486854e-006 1.45369631e-006 1.45056356e-006 1.45002298e-006
      1.62188246e-006 1.77239463e-006 1.77332606e-006 1.74761249e-006
      1.74369109e-006 1.73805711e-006 1.74369109e-006 1.72016269e-006
      1.68610302e-006 1.68879149e-006 1.68951919e-006 1.67629946e-006
      1.72212344e-006 1.78212758e-006 1.82020108e-006 1.76792685e-006
      1.76219544e-006 1.85921124e-006 1.78947175e-006 1.77272261e-006
      1.69222938e-006 1.71646013e-006 1.47227081e-006 1.47069534e-006
      1.34631011e-006 1.53850090e-006 1.65740562e-006 1.43885620e-006
      1.53317239e-006 1.86849786e-006 1.62872857e-006 1.70715828e-006
      1.70953547e-006 1.71030217e-006 1.71025124e-006 1.80022164e-006
      1.68069278e-006 1.70249439e-006 1.69602652e-006 1.67618782e-006
      1.69304349e-006 1.85240287e-006 1.85766260e-006 1.68695055e-006
      1.38561381e-006 1.13513590e-006 1.62468575e-006 1.70770079e-006
      1.69248028e-006 1.68510257e-006 1.68314193e-006 1.68314193e-006
      1.68879149e-006 1.68879149e-006 1.68879149e-006 1.68879149e-006
      1.68879149e-006 1.68879149e-006 1.68879149e-006 1.68879149e-006
      1.68879149e-006 1.68879149e-006 1.68879149e-006 1.68879149e-006
      1.68879149e-006 -4.51963693e-008 -1.12052567e-006 -5.32972820e-007
      -5.81903237e-007 -5.95117797e-007 -1.67499843e-006
      -1.89438367e-006 -1.65230347e-006 -1.48587321e-006
      -1.37996312e-006 -1.36007827e-006 -1.10714768e-006
      -8.81884830e-007 -4.63053311e-007 -6.75075341e-007
      -7.54190467e-007 -4.83815768e-007 -4.06996463e-007 6.67609243e-007
      6.48286630e-007 7.12812721e-007 7.88927764e-007 8.69414748e-007
      1.79465337e-006 1.67899680e-006 1.68772181e-006 1.69878422e-006
      1.70098372e-006 1.69746727e-006 1.70332794e-006 1.74435320e-006
      1.75021398e-006 1.70684439e-006 1.70082683e-006 1.70598616e-006
      1.68800295e-006 1.69050418e-006 1.67752330e-006 1.68487009e-006
      1.69663429e-006 1.73167882e-006 1.75741604e-006 1.75840091e-006
      1.68022086e-006 1.68683073e-006 1.68806366e-006 1.68414226e-006
      1.68487009e-006 1.70307135e-006 1.74072011e-006 1.87100943e-006
      1.65565871e-006 1.75382399e-006 1.79424217e-006 1.71406361e-006
      1.69712496e-006 1.68428721e-006 1.69332839e-006 1.80118957e-006
      1.89492050e-006 1.46440789e-006 1.40119857e-006 1.50575534e-006
      1.96702013e-006 1.49667449e-006 1.40011036e-006 1.42202850e-006
      1.43295233e-006 1.49141488e-006 1.44808848e-006 1.75324965e-006
      1.67334611e-006 1.69720545e-006 1.70372186e-006 1.76389824e-006
      1.86725254e-006 1.93346204e-006 1.70551493e-006 1.69349210e-006
      1.68260829e-006 1.64924461e-006 1.23682776e-006 1.11818724e-006
      1.58145008e-006 1.72072805e-006 1.69444104e-006 1.68879149e-006
      1.68879149e-006 1.68879149e-006 1.68879149e-006 1.68879149e-006
      1.68879149e-006 1.68879149e-006 1.68879149e-006 1.68879149e-006
      1.68879149e-006 1.68879149e-006 1.68879149e-006 1.68879149e-006
      1.68879149e-006 -2.82477313e-008 -9.05842853e-007 -6.44048271e-007
      -6.06416904e-007 -1.34778770e-006 -2.27263399e-006
      -1.34213815e-006 -1.60882882e-006 -1.58421835e-006
      -1.71649685e-006 -1.33654987e-006 -1.12368366e-006
      -1.32365835e-006 -7.77934304e-007 -6.31000546e-007
      -5.67008328e-007 -4.48067055e-007 -4.45474541e-007 2.44458125e-008
      8.65591858e-007 7.52119718e-007 8.18801766e-007 7.38261292e-007
      1.22240112e-006 1.83921179e-006 1.68776421e-006 1.68629026e-006
      1.68761926e-006 1.68879149e-006 1.68644715e-006 1.69816860e-006
      1.73567742e-006 1.74790000e-006 1.73881028e-006 1.69037560e-006
      1.69676980e-006 1.68081306e-006 1.68624888e-006 1.68099848e-006
      1.68099848e-006 1.67315568e-006 1.69251462e-006 1.73026410e-006
      1.71897955e-006 1.67634926e-006 1.67928579e-006 1.68099848e-006
      1.68099848e-006 1.67826022e-006 1.69293548e-006 1.82925635e-006
      1.75691082e-006 1.75085597e-006 1.75406581e-006 1.67545124e-006
      1.69745715e-006 1.70502994e-006 1.72189414e-006 1.63629443e-006
      1.53259066e-006 1.35344601e-006 1.83232339e-006 1.99924034e-006
      1.75973491e-006 1.70499936e-006 1.67746020e-006 1.46480943e-006
      1.24745861e-006 1.48459765e-006 1.58902537e-006 1.80550103e-006
      1.69117368e-006 1.68157430e-006 1.77102118e-006 1.78860046e-006
      1.93030678e-006 1.77127254e-006 1.68540373e-006 1.68747863e-006
      1.68213012e-006 1.69248028e-006 1.71138970e-006 1.05212087e-006
      1.06169182e-006 1.21987910e-006 1.55885186e-006 1.71138970e-006
      1.68879149e-006 1.68879149e-006 1.68879149e-006 1.68879149e-006
      1.68879149e-006 1.68879149e-006 1.68879149e-006 1.68879149e-006
      1.68879149e-006 1.68879149e-006 1.68879149e-006 1.68879149e-006
      1.68879149e-006 -5.64954616e-009 -2.20332311e-007 -1.16380647e-006
      -5.81903237e-007 -2.10246981e-006 -1.48198160e-006
      -1.66173868e-006 -2.18552145e-006 -1.48582797e-006
      -1.37215011e-006 -1.89882212e-006 -1.55371492e-006
      -1.39952613e-006 -8.92585888e-007 -5.38407960e-007
      -5.42060832e-007 -4.54511280e-007 -4.57672797e-007
      -1.96877835e-007 8.91531272e-007 7.20572700e-007 7.81397773e-007
      7.21796255e-007 9.81683797e-007 1.74721129e-006 1.70402507e-006
      1.67825851e-006 1.69231998e-006 1.68879149e-006 1.68409088e-006
      1.68174654e-006 1.68647557e-006 1.69582438e-006 1.74385400e-006
      1.74207185e-006 1.71583622e-006 1.69755856e-006 1.75350897e-006
      1.74477032e-006 1.75294690e-006 1.75786192e-006 1.73756598e-006
      1.79098879e-006 1.80592633e-006 1.73809030e-006 1.74495563e-006
      1.74844365e-006 1.75510581e-006 1.69771613e-006 1.67315397e-006
      1.77912955e-006 1.85704243e-006 1.88448121e-006 1.92960715e-006
      1.76017704e-006 1.71949455e-006 1.66111727e-006 1.34565448e-006
      1.26428984e-006 1.70211445e-006 1.66837015e-006 1.88012609e-006
      1.79161407e-006 1.67496785e-006 1.68780662e-006 1.69344969e-006
      1.69712314e-006 1.66307791e-006 1.66235930e-006 1.59053377e-006
      1.81317819e-006 1.68941665e-006 1.76125218e-006 1.78740947e-006
      1.80110419e-006 1.78222808e-006 1.67194958e-006 1.69349210e-006
      1.68409088e-006 1.68409088e-006 1.68314193e-006 1.68879149e-006
      1.67184282e-006 1.67184282e-006 1.62664651e-006 1.37241693e-006
      1.36676738e-006 1.69444104e-006 1.69444104e-006 1.69444104e-006
      1.68879149e-006 1.68879149e-006 1.68879149e-006 1.68879149e-006
      1.68879149e-006 1.68879149e-006 1.68879149e-006 1.68879149e-006
      1.68879149e-006 1.68879149e-006 -5.64954616e-009 -5.64954616e-009
      -6.85801069e-007 -2.04471553e-006 -1.59178330e-006
      -1.38167582e-006 -1.37622908e-006 -1.81102587e-006
      -2.02684873e-006 -2.13683302e-006 -1.80037739e-006
      -1.35693051e-006 -1.30608203e-006 -1.10261874e-006
      -5.68557937e-007 -4.45748555e-007 -4.68882035e-007
      -4.65697809e-007 -1.96344175e-007 9.20315699e-007 6.93310994e-007
      7.08574817e-007 7.29861597e-007 7.35693959e-007 1.13768533e-006
      1.84705630e-006 1.68765985e-006 1.68996360e-006 1.69466421e-006
      1.69345162e-006 1.68996360e-006 1.69345162e-006 1.68178701e-006
      1.68234908e-006 1.73377259e-006 1.79319147e-006 1.84361340e-006
      1.93980827e-006 1.92275093e-006 1.91197500e-006 1.90980927e-006
      1.90588787e-006 1.93658980e-006 2.00120189e-006 1.94571203e-006
      1.90336505e-006 1.90595733e-006 1.88622016e-006 1.76387198e-006
      1.69311409e-006 1.37566508e-006 1.55966006e-006 1.54792008e-006
      1.32751029e-006 1.27305714e-006 1.29741363e-006 1.34500999e-006
      1.61203366e-006 1.64411961e-006 1.87098465e-006 1.83103032e-006
      1.80770098e-006 1.65379765e-006 1.68879149e-006 1.68879149e-006
      1.68682163e-006 1.68781571e-006 1.68806366e-006 1.70027306e-006
      1.77337586e-006 1.72740329e-006 1.68615134e-006 1.77965808e-006
      1.72747139e-006 1.80348502e-006 1.75460036e-006 1.67052258e-006
      1.68879149e-006 1.69075213e-006 1.69349210e-006 1.69444104e-006
      1.68879149e-006 1.69444104e-006 1.69444104e-006 1.68879149e-006
      1.50800599e-006 1.22552865e-006 1.71138970e-006 1.68879149e-006
      1.68879149e-006 1.68879149e-006 1.68879149e-006 1.68879149e-006
      1.68879149e-006 1.68879149e-006 1.68879149e-006 1.68879149e-006
      1.68879149e-006 1.68879149e-006 1.68879149e-006 -1.32145539e-008
      -7.56500729e-009 -1.04137769e-006 -2.05506740e-006
      -2.03732270e-006 -1.72080615e-006 -1.39303563e-006
      -1.44397836e-006 -1.84386192e-006 -1.89966488e-006
      -1.43596048e-006 -1.34675440e-006 -1.33074343e-006
      -1.12074156e-006 -5.49692231e-007 -4.35164765e-007
      -4.68966675e-007 -4.65164135e-007 -3.64947539e-007 4.24490992e-007
      8.64602782e-007 7.30993293e-007 7.29861597e-007 7.29861597e-007
      9.00641339e-007 1.68765985e-006 1.77923528e-006 1.66655343e-006
      1.67012240e-006 1.66663438e-006 1.66899076e-006 1.67125404e-006
      1.85156250e-006 1.88591787e-006 1.83808731e-006 1.81465316e-006
      1.81310907e-006 1.74115462e-006 1.73400008e-006 1.71685826e-006
      1.74502622e-006 1.72360785e-006 1.72014120e-006 1.74816944e-006
      1.73184117e-006 1.67811368e-006 1.68080021e-006 1.53136455e-006
      1.48547849e-006 1.70951580e-006 1.81389953e-006 1.86596822e-006
      1.66909308e-006 1.65720326e-006 1.68144470e-006 1.66884672e-006
      1.67135806e-006 1.67008272e-006 1.79783956e-006 1.96473752e-006
      1.93272126e-006 1.74862896e-006 1.68398640e-006 1.70197052e-006
      1.68879149e-006 1.69417751e-006 1.68144470e-006 1.68977635e-006
      1.70099179e-006 1.79638141e-006 1.72953810e-006 1.77511163e-006
      1.82422400e-006 1.82649444e-006 1.76126173e-006 1.69075213e-006
      1.68879149e-006 1.68213012e-006 1.68462452e-006 1.68879149e-006
      1.67749238e-006 1.68314193e-006 1.68314193e-006 1.68879149e-006
      1.68879149e-006 1.68314193e-006 1.25942597e-006 1.30462229e-006
      1.71703914e-006 1.68879149e-006 1.68879149e-006 1.68879149e-006
      1.68879149e-006 1.68879149e-006 1.68879149e-006 1.68879149e-006
      1.68879149e-006 1.68879149e-006 1.68879149e-006 1.68879149e-006
      -1.32145539e-008 -1.24774203e-007 -1.13283568e-006
      -8.83190410e-007 -7.94325786e-007 -1.32336174e-006
      -1.85270642e-006 -1.89918649e-006 -2.66451161e-006
      -1.92402626e-006 -1.38674011e-006 -1.34394975e-006
      -1.34779930e-006 -9.25968891e-007 -4.08294795e-007
      -4.53256973e-007 -4.68491095e-007 -4.65164135e-007
      -4.64630489e-007 6.02775145e-008 9.35657852e-007 7.14376881e-007
      7.27849454e-007 7.22017148e-007 7.21340825e-007 1.49832874e-006
      1.80361894e-006 1.73074932e-006 1.89762295e-006 1.87185651e-006
      1.88939384e-006 1.89409445e-006 1.92791617e-006 1.80660982e-006
      1.73427782e-006 1.65507458e-006 1.67574501e-006 1.69401369e-006
      1.69205305e-006 1.70578323e-006 1.69024690e-006 1.76257902e-006
      1.87603644e-006 1.71990609e-006 1.75483081e-006 1.72183491e-006
      1.68262079e-006 1.52183134e-006 1.43728869e-006 1.68396673e-006
      1.75023570e-006 1.71824206e-006 1.70241674e-006 1.69716543e-006
      1.69310931e-006 1.68776421e-006 1.68315739e-006 1.67194958e-006
      1.90758669e-006 1.93374854e-006 1.74015054e-006 1.67599512e-006
      1.69359646e-006 1.68511815e-006 1.68315739e-006 1.69147995e-006
      1.68315739e-006 1.69246482e-006 1.71365843e-006 1.84932912e-006
      1.77465392e-006 1.86013210e-006 1.90049400e-006 1.76493506e-006
      1.66435484e-006 1.68462452e-006 1.68658516e-006 1.69349210e-006
      1.68409088e-006 1.68825784e-006 1.68879149e-006 1.70009059e-006
      1.68879149e-006 1.68879149e-006 1.68879149e-006 1.68314193e-006
      1.71138970e-006 1.71703914e-006 1.68879149e-006 1.69444104e-006
      1.69444104e-006 1.68879149e-006 1.68879149e-006 1.68879149e-006
      1.68879149e-006 1.68879149e-006 1.68879149e-006 1.68879149e-006
      1.68879149e-006 1.68879149e-006 -7.56500729e-009 -4.53900441e-007
      -1.42030592e-006 -7.71630766e-007 -7.86760779e-007
      -7.86760779e-007 -8.01687975e-007 -9.36107995e-007
      -1.81749556e-006 -1.95824782e-006 -1.38499649e-006
      -1.34389802e-006 -1.32314960e-006 -7.69209350e-007
      -3.69674439e-007 -4.61021159e-007 -4.69480142e-007
      -4.64630489e-007 -4.67774328e-007 8.99727226e-008 9.34590560e-007
      7.01831766e-007 9.51489426e-007 7.78532296e-007 7.55879341e-007
      1.64614869e-006 2.06448590e-006 1.87185651e-006 1.71795307e-006
      1.73901890e-006 1.74145623e-006 1.72848593e-006 1.70742010e-006
      1.67189251e-006 1.68359770e-006 1.68975396e-006 1.70334283e-006
      1.68338795e-006 1.69424015e-006 1.68392160e-006 1.70465171e-006
      1.91913432e-006 1.87349792e-006 1.71086538e-006 1.80669701e-006
      1.76133130e-006 1.72434204e-006 1.58944295e-006 1.31297702e-006
      1.69293389e-006 1.80615950e-006 1.68093788e-006 1.68311499e-006
      1.68041743e-006 1.68193185e-006 1.68765985e-006 1.71229465e-006
      1.84288524e-006 1.89788284e-006 1.93515848e-006 1.66178881e-006
      1.68295912e-006 1.68765985e-006 1.68992312e-006 1.68879149e-006
      1.68414226e-006 1.68951919e-006 1.73238061e-006 1.78542518e-006
      1.88726983e-006 1.85353611e-006 1.91930576e-006 1.74278478e-006
      1.67464952e-006 1.69442558e-006 1.68879149e-006 1.68683073e-006
      1.67939015e-006 1.68879149e-006 1.68736437e-006 1.68879149e-006
      1.68879149e-006 1.68879149e-006 1.68879149e-006 1.68314193e-006
      1.68879149e-006 1.68879149e-006 1.69444104e-006 1.69444104e-006
      1.68879149e-006 1.69444104e-006 1.68879149e-006 1.68879149e-006
      1.68879149e-006 1.68879149e-006 1.68879149e-006 1.68879149e-006
      1.68879149e-006 1.68879149e-006 1.68295912e-006 -8.68884413e-008
      -1.45982813e-006 -6.92089031e-007 -7.90434171e-007
      -7.97999178e-007 -7.94325786e-007 -7.94325786e-007
      -1.49791390e-006 -1.11588440e-006 -2.26671773e-006
      -1.31155241e-006 -1.35114635e-006 -1.36464871e-006
      -1.21500341e-006 -4.07658575e-007 -4.36563965e-007
      -4.69207521e-007 -4.76112348e-007 -4.67135834e-007 9.72430811e-008
      9.37012771e-007 7.22897653e-007 9.23459538e-007 9.58453484e-007
      9.57321731e-007 1.58260116e-006 1.79559163e-006 1.67939015e-006
      1.70289343e-006 1.81570863e-006 1.86271507e-006 1.75930097e-006
      1.74103207e-006 1.74936611e-006 1.71176100e-006 1.67992380e-006
      1.68569181e-006 1.70759404e-006 1.72276327e-006 1.69496843e-006
      1.75404432e-006 1.76814615e-006 1.83289967e-006 2.00268573e-006
      1.96534006e-006 1.98871066e-006 1.91379809e-006 1.93830510e-006
      1.65522556e-006 1.59308354e-006 1.63070513e-006 1.73489991e-006
      1.73311628e-006 1.74905972e-006 1.72879334e-006 1.79333711e-006
      1.90854917e-006 1.87045100e-006 1.78942025e-006 1.86880459e-006
      1.66973780e-006 1.70049657e-006 1.67825851e-006 1.68761926e-006
      1.68683073e-006 1.69344059e-006 1.73697606e-006 1.79638494e-006
      1.86755790e-006 1.82946530e-006 1.89419018e-006 1.73483272e-006
      1.68825784e-006 1.68825784e-006 1.68932513e-006 1.68879149e-006
      1.68879149e-006 1.68879149e-006 1.68879149e-006 1.68879149e-006
      1.68879149e-006 1.68879149e-006 1.68879149e-006 1.68879149e-006
      1.68879149e-006 1.68879149e-006 1.68879149e-006 1.68879149e-006
      1.68879149e-006 1.68879149e-006 1.68879149e-006 1.68879149e-006
      1.68879149e-006 1.67712687e-006 1.69462373e-006 1.68879149e-006
      1.68879149e-006 1.68295912e-006 1.68879149e-006 1.73544993e-006
      -9.44534548e-008 -1.45615479e-006 -6.99654038e-007
      -8.05564184e-007 -8.01672513e-007 -7.97999178e-007
      -8.38406095e-007 -1.46852699e-006 -1.15657031e-006
      -2.11022757e-006 -1.41352325e-006 -1.34065363e-006
      -1.36885353e-006 -1.31795821e-006 -4.37776919e-007
      -4.29398114e-007 -4.72702254e-007 -4.57991547e-007
      -4.76112348e-007 9.87811077e-008 9.43917598e-007 7.13496377e-007
      7.35511151e-007 7.36825598e-007 9.15440978e-007 1.64160235e-006
      1.72901662e-006 1.67939015e-006 1.72639659e-006 1.74989975e-006
      1.68409088e-006 1.80160669e-006 1.81987559e-006 1.82040924e-006
      1.82040924e-006 1.81047437e-006 1.81047437e-006 1.81100802e-006
      1.81934195e-006 1.81314260e-006 1.82671090e-006 1.80831330e-006
